{"learner":{"attributes":{},"feature_names":[],"feature_types":[],"gradient_booster":{"model":{"gbtree_model_param":{"num_parallel_tree":"1","num_trees":"100"},"iteration_indptr":[0,1,2,3,4,5,6,7,8,9,10,11,12,13,14,15,16,17,18,19,20,21,22,23,24,25,26,27,28,29,30,31,32,33,34,35,36,37,38,39,40,41,42,43,44,45,46,47,48,49,50,51,52,53,54,55,56,57,58,59,60,61,62,63,64,65,66,67,68,69,70,71,72,73,74,75,76,77,78,79,80,81,82,83,84,85,86,87,88,89,90,91,92,93,94,95,96,97,98,99,100],"tree_info":[0,0,0,0,0,0,0,0,0,0,0,0,0,0,0,0,0,0,0,0,0,0,0,0,0,0,0,0,0,0,0,0,0,0,0,0,0,0,0,0,0,0,0,0,0,0,0,0,0,0,0,0,0,0,0,0,0,0,0,0,0,0,0,0,0,0,0,0,0,0,0,0,0,0,0,0,0,0,0,0,0,0,0,0,0,0,0,0,0,0,0,0,0,0,0,0,0,0,0,0],"trees":[{"base_weights":[-1.7697465E-4,-9.8944473E-1,7.9402757E-1,-1.5161984E0,-3.56973E-1,2.824303E-1,1.0390866E0,-1.6140068E0,-1.179375E0,1.1638956E-1,-9.61008E-1,6.013276E-1,-6.161318E-1,1.3303921E0,8.9726007E-1,-1.8106294E0,-1.5246358E0,-2.3389763E-1,-1.3074776E0,3.9126754E-1,-5.469308E-1,-1.3629736E0,-6.55915E-1,1.0239567E-2,7.552937E-1,-3.6580563E-1,-1.272608E0,6.921786E-1,1.5224354E0,-3.4784526E-1,9.7543985E-1,-4.167981E-1,-1.7519219E0,-5.942743E-1,-1.5405369E0,1.5157329E-1,-5.8270025E-1,-1.1841216E0,-1.4788105E0,-5.230652E-1,6.6870695E-1,-1.2786711E0,3.9648864E-1,-6.5401274E-1,-1.4820566E0,-2.1705146E-1,-1.1748674E0,9.251341E-1,-7.666492E-2,9.434712E-1,2.3265143E-1,-7.7081305E-1,-3.9829664E-2,-1.3482949E0,-4.6769742E-2,3.0386057E-1,1.0500449E0,1.2570438E0,1.6686549E0,5.712971E-2,-1.2273741E0,8.332939E-1,1.388508E0,-1.35854E0,-3.9544648E-1,-1.3808153E0,6.359543E-1,-1.5626273E0,-9.0711683E-1,-3.476813E-1,2.7564916E-1,-9.1500604E-1,7.376343E-1,-1.3735464E0,-9.2445713E-1,9.189122E-2,-1.4865246E0,5.3627217E-1,-7.318403E-1,3.3743644E-1,1.141829E0,-1.4509461E0,2.561028E-1,4.0334947E-2,1.7540227E0,-7.582801E-1,1.8024577E-1,-1.85243E-1,-1.4956126E0,-7.3639154E-1,-3.391706E-2,-1.250328E0,-4.5802584E-1,1.0613831E0,-7.558222E-1,-3.6774972E-1,1.6181917E-1,7.030958E-1,1.0785861E0,1.4986275E0,1.5058294E-1,-8.590337E-1,1.252566E-1,-6.658772E-1,7.79831E-2,-9.325185E-1,-1.4374989E0,6.547715E-1,-6.680016E-1,5.769624E-1,-3.818541E-1,1.4036939E0,7.9169685E-1,1.3519247E0,2.960984E-1,1.406072E0,1.7330834E0,-1.0107328E0,2.3256302E-1,-2.1847449E-1,-1.451055E0,1.0935119E0,5.932505E-1,1.4839076E0,4.2670292E-1,-3.735971E-1,-1.5278809E0,-3.30281E-2,-3.695859E-1,-7.916562E-1,9.254726E-1,-1.6378043E0,-1.5236362E0,2.5290346E-1,-3.8187128E-1,9.1952175E-1,-5.6230232E-2,1.997406E-1,-9.870928E-1,6.722467E-2,1.3830155E0,-2.6813427E-1,-1.4119831E0,-2.7663502E-1,-9.988376E-1,-3.3907298E-2,6.591905E-2,-7.608345E-1,-1.503957E0,-1.3548763E0,8.29467E-1,-8.698403E-1,-3.598634E-1,1.3045516E0,1.761767E-1,3.4627983E-1,1.3946958E0,6.584387E-2,-1.5120242E0,-8.1675047E-1,6.9302046E-1,1.1080271E0,-3.8251746E-1,-2.8040043E-1,1.8483938E0,-6.704325E-1,-1.4502267E0,-8.534598E-1,6.5086967E-1,-3.2728383E-1,7.2644895E-1,-1.5267972E0,-1.0813386E0,3.378419E-1,-7.937109E-1,1.8757135E-1,-4.2335E-1,-9.7452307E-1,-1.4129881E0,3.311299E-1,-5.6045604E-1,-1.5291679E-1,1.1440432E0,-2.593616E-1,6.591905E-2,-4.5190197E-1,8.9825976E-1,1.1839626E-1,1.4419284E0,9.120606E-1,3.5064632E-1,8.04662E-1,1.2807438E0,-3.322214E-1,1.8113817E0,5.8050264E-2,1.4356058E0,-7.4026036E-1,-1.3112166E0,7.5037974E-1,-3.8544506E-1,-5.0211567E-1,-1.4340342E0,4.860012E-1,-1.3408841E-1,-1.324139E0,-2.3390606E-1,-1.4690355E0,-7.080039E-1,-2.3355998E-1,1.0065868E0,-9.4908893E-1,9.65E-2,1.6162696E0,3.786502E-1,-1.0697459E0,1.1832063E-1,1.6582421E0,1.0092024E0,4.5377108E-1,1.0117505E0,1.207334E0,1.8375591E0,7.039399E-1,-1.0104564E0,1.5165505E0,1.6119452E-1,1.7471617E0,9.5514E-1,-1.1584051E0,1.9070232E-2,1.69267E-2,6.186596E-1,9.683676E-2,-3.322214E-1,-1.6239129E0,-1.0158798E0,7.5517434E-1,1.3198594E0,4.6232367E-1,1.2708627E0,1.1920605E0,1.739817E0,-6.8516374E-1,9.9556935E-1,-2.031642E-1,1.6574538E-1,-1.6016917E0,-3.3907298E-2,7.6303273E-1,-7.277298E-1,-2.2206633E-1,-3.3907298E-2,4.2064673E-1,2.3675388E-1,-1.3337592E0,-1.6857649E0,3.593681E-1,-1.534027E0,-3.5355732E-1,5.178459E-1,1.3022364E0,2.1208094E-1,-2.9169846E-1,7.4096285E-2,2.6198038E-1,-2.0549636E-1,1.9070232E-2,-1.0623573E0,-2.3627193E-1,5.653571E-1,3.9338505E-1,-1.3373363E-1,-6.66196E-1,2.4537516E-1,-1.467568E0,-1.1209648E0,-5.9922725E-1,5.787889E-1,-4.4156414E-1,-1.0508294E0,-3.561565E-1,-5.8029648E-2,-3.7383074E-1,-1.4300896E0,-3.7144867E-1,-3.0686113E-1,1.8488005E-1,1.3722432E0,-3.076888E-1,-9.491898E-1,1.03613794E-1,-6.601681E-1,1.6451125E0,3.8961253E-1,-3.7683724E-4,7.653837E-1,1.4702915E0,2.5198197E-1,1.5788966E0,2.542548E-1,3.5081178E-1,-3.07553E-1,-1.1205714E0,-1.6245737E0,4.7372386E-2,-3.426807E-1,-6.143762E-1,9.343027E-1,6.3072693E-1,1.5440078E0,-9.970732E-1,1.4044279E-1,1.3433025E0,4.692897E-1,-9.637766E-1,-4.2502847E-1,-3.3907298E-2,-1.5679252E0,1.0714968E-1,-3.217659E-1,1.076E0,1.0891501E-1,3.311299E-1,-1.9620152E-2,-1.6516649E0,-1.4372818E0,-4.646053E-1,-1.4449128E0,-9.2694086E-1,-4.2325288E-1,-2.4730648E-1,2.9096076E-1,-1.13333054E-1,-6.2484175E-1,-1.2485185E0,-6.930948E-1,-1.4589931E0,-1.029064E0,-3.020573E-1,-1.0513246E0,4.860101E-1,1.3852979E0,-2.0671526E-1,-7.7366066E-1,1.1397429E0,-2.52291E-1,4.239388E-1,-8.647033E-2,6.525988E-1,4.1261548E-1,1.13336E0,5.806952E-1,8.777323E-2,6.651626E-1,8.4712267E-1,-8.8426983E-1,8.170447E-1,1.3989642E0,1.874406E0,5.9191763E-2,-2.8391874E-1,3.291214E-1,1.8982084E0,5.345586E-1,-1.035126E0,-5.817493E-1,3.9085317E-1,-1.4205472E0,1.1264143E-1,1.1964536E0,-5.298103E-1,1.9700985E-1,-8.2322526E-1,-2.8091308E-1,-2.251155E-2,-3.6485726E-1,3.9813888E-1,1.2668033E0,-2.5002217E-1,9.420653E-1,-8.07741E-1,-3.435972E-1,4.7807646E-1,-1.2582842E0,-1.5221597E0,-1.2160747E0,-3.8598615E-1,-3.085253E-1,1.212838E0,-3.3907298E-2,-3.938767E-2,-3.085752E-1,1.9700985E-1,-1.6243082E-1,-1.22559756E-1,2.0121388E0,-2.567145E-1,6.5746844E-1,-1.4495577E0,4.3214756E-1,-3.6079827E-1,3.392566E-1,-1.3373363E-1,1.6940311E0,7.6399213E-1,1.8456254E0,-8.074785E-1,5.8971727E-1,-3.188643E-1,1.1258516E0,1.4291314E0,9.655505E-1,2.0720159E-1,1.8707836E0,-7.887713E-1,8.862952E-1,-3.492193E-1,-4.9343294E-1,1.8095449E0,1.2652464E0,-9.2719316E-1,5.338165E-1,1.6135206E0,1.8286251E0,1.5780226E0,-3.085752E-1,-1.3049016E0,-5.559544E-1,1.0305063E0,-2.8040043E-1,-8.99994E-1,1.2040377E-1,9.9996346E-1,-1.6267082E-1,-6.3154763E-1,6.19918E-1,-3.7294835E-1,-9.7176933E-1,-5.1088196E-1,-3.5884362E-1,1.0343688E0,6.590571E-2,9.27438E-1,1.4599452E0,1.5596771E-1,7.092857E-1,9.895307E-1,1.6275418E0,1.5349153E0,1.0491495E0,9.202476E-1,1.8093944E0,1.5304986E0,-1.1173662E0,3.9533454E-1,9.36152E-1,-8.4885937E-1,-3.8416323E-1,-3.3907298E-2,2.8687E-1,-2.8040043E-1,6.591905E-2,3.2218242E-1,-3.734538E-1,-1.4265426E0,-6.757382E-1,-3.3907298E-2,-1.6876614E0,1.1820476E0,-7.289405E-1,-1.3934807E0,-1.5610471E0,6.9185615E-1,-2.6887104E-1,4.0653664E-1,5.389123E-1,-1.1717227E0,1.4451785E0,1.9358136E-1,-1.0600716E0,-1.6243082E-1,4.5245296E-1,-1.2775397E0,-6.324249E-1,3.5081178E-1,-2.98366E-1,-1.005367E0,5.4531794E-2,6.525988E-1,-1.3059229E-1,-8.236406E-1,-1.496724E0,9.65E-2,-1.176921E0,-1.571535E-1,-1.2742051E0,-7.712979E-2,1.1553034E0,-3.085253E-1,-2.6967257E-1,-1.0806707E0,4.7372386E-2,-1.8591818E-1,2.536971E-1,-1.4420563E0,-2.98366E-1,1.0714968E-1,-2.3355998E-1,6.9254464E-1,-5.494999E-1,1.4820858E0,-2.3355998E-1,-3.585633E-1,-2.964135E-2,-1.2716016E0,-7.768155E-1,-8.636284E-1,3.9571595E-1,4.3214756E-1,-8.2281154E-1,1.7403706E0,-3.735971E-1,-6.280861E-1,1.1382121E0,2.767958E-1,-4.5273888E-1,1.2691422E0,8.367753E-2,-1.6243082E-1,4.1326615E-1,-4.2404115E-1,3.8278198E-1,-2.2206633E-1,1.5946666E0,-2.3263523E-1,1.4857697E0,-6.9376826E-1,7.688919E-1,-1.4637331E0,-2.564823E-1,-1.680598E0,-1.1138633E0,-6.996866E-1,1.0305063E0,-2.6887104E-1,9.4119914E-2,1.1281635E0,-6.558209E-1,8.503294E-1,-4.7061235E-1,1.7371145E0,3.1860366E-1,-4.5700565E-2,-1.1913701E0,7.4973196E-1,-7.828461E-1,3.502023E-1,4.1558126E-1,5.9191763E-2,-1.0113406E0,-9.139295E-1,-1.6102363E-1,-3.8185346E-1,-1.0421487E-1,3.09774E-1,-3.3907298E-2,-4.9902633E-1,2.8687E-1,-2.52291E-1,2.2259839E-1,-1.6570507E0,-3.3907298E-2,-7.8689957E-1,-1.5016419E0,-7.8119636E-1,7.1709424E-1,-1.624269E0,-6.66196E-1,5.2304894E-2,-9.8347694E-1,-8.2473123E-1,2.8050652E-1,6.0948357E-2,-5.157282E-1,3.1492087E-1,-3.1555894E-1,-4.523968E-1,1.8582368E-1,-8.1531614E-1,-9.4866715E-2,-1.2772106E0,5.9191763E-2,-5.1921034E-1,-1.0554281E0,-1.5308069E0,-1.3040812E0,-6.71682E-1,-3.6099255E-1,-1.0121924E0,8.521177E-2,-1.3897018E0,-6.182466E-1,3.7214136E-1,4.163785E-2,1.4372702E0,4.9555928E-1,-3.3071625E-1,9.6240723E-1,-1.0666616E0,-3.3252752E-1,-1.6243082E-1,1.3634732E0,9.4465315E-2,1.0153826E0,-1.4921182E-1,6.853959E-1,1.0995945E0,-7.257066E-2,1.2927947E0,4.808313E-1,8.683343E-2,1.2973996E0,-1.042614E0,2.0495106E-1,8.796979E-1,1.252566E-1,7.254302E-1,1.4015645E0,2.7842779E-2,-1.4344729E0,6.62142E-1,4.391465E-1,1.4594567E0,8.657214E-1,9.9080205E-1,4.5667624E-1,-3.5591125E-1,8.487603E-1,3.8679096E-1,-8.6781925E-1,1.0714968E-1,1.9560941E0,2.9017767E-1,3.311299E-1,-1.9620152E-2,-1.0691214E0,-9.7107047E-1,-4.4537616E-1,-4.812212E-1,3.0430174E-1,-1.2912171E0,-1.6822625E0,-3.735971E-1,7.6303273E-1,1.5304986E0,-1.3373363E-1,9.539609E-3,-9.57E-1,2.164164E-1,-9.778707E-1,4.3586093E-1,-4.3606734E-1,6.882005E-1,1.5489426E-1,-7.257066E-2,1.4836226E0,-9.569441E-2,-6.200242E-1,4.2958903E-1,1.2298461E0,1.9700985E-1,-1.1044233E0,-9.0034693E-1,1.1195874E0,-3.6834204E-1,1.0714968E-1,-3.6169276E-1,-1.2963213E0,-1.228499E-1,-1.298814E0,-2.1776962E-1,5.4595643E-1,5.9191763E-2,1.4451785E0,-2.3355998E-1,1.9700985E-1,1.2632625E0,-3.322214E-1,1.0714968E-1,4.637626E-1,-7.8861135E-1,1.1311426E-1,9.216416E-1,-2.9464543E-1,-3.3402792E-1,-7.257066E-2,1.2779386E0,-1.7740698E-1,1.4519438E0,-2.652429E-1,-2.251155E-2,1.7286025E0,-1.867292E-1,1.2829323E0,6.591905E-2,4.4192725E-1,-3.322214E-1,-7.712979E-2,7.036901E-1,-6.001085E-1,3.0430174E-1,-7.594846E-1,1.2917022E0,6.584387E-2,1.7299784E0,1.2011338E0,5.278338E-1,1.2797381E0,2.8687E-1,-1.5291679E-1,1.903426E0,6.7006177E-1,2.655717E-1,-3.1326386E-1,1.2369467E0,3.74401E-1,-7.161711E-1,1.6574538E-1,1.988895E0,1.484683E0,1.3893348E0,4.5408753E-1,1.4089508E-1,-3.4434298E-1,1.2427108E0,-4.8195997E-1,1.8515869E0,1.3322564E0,1.8451823E0,1.1003447E0,-1.4617733E-2,1.7899629E0,-3.3907298E-2,-1.3570167E0,1.0714968E-1,-8.566979E-1,2.8687E-1,6.591905E-2,-1.4342088E0,3.9085317E-1,9.0199864E-1,-8.109789E-2,1.5498425E0,6.551042E-1,5.53979E-1,-6.2433845E-1,9.189122E-2,-9.3548566E-1,-4.812212E-1,9.604075E-1,-3.3907298E-2,-2.5503185E-1,1.6907707E-1,-1.0885872E0,2.9714727E-1,1.138577E0,2.3920271E-1,-1.3773092E0,1.2439163E0,3.2815623E-1,1.824509E0,1.344376E0,-3.1167582E-1,4.1795084E-1,5.838173E-1,1.088789E0,5.600699E-1,1.2803035E0,1.8489475E0,1.1776565E0,-8.376726E-2,1.558894E0,4.451697E-1,1.2197132E0,-5.462448E-1,1.7122184E0,3.507148E-1,1.8389659E0,-3.3907298E-2,4.1261548E-1,3.311299E-1,-1.3015598E0,-2.5565672E-1,9.830826E-1,-2.251155E-2,-2.8040043E-1,-2.2529873E-1,2.1324076E-1,-3.72359E-1,-2.7911174E-1,4.037802E-2,-2.3687805E-1,-3.7861288E-1,-7.257066E-2,-2.251155E-2,3.5622844E-1,-2.9121584E-1,-8.826619E-3,-3.258223E-1,-1.5057577E-1,-3.5516697E-1,-3.0314508E-1,-8.721024E-2,2.107643E-1,-1.6243082E-1,2.0781115E-1,-3.3907298E-2,-3.217659E-1,6.591905E-2,3.777557E-1,-8.3603095E-3,1.5097971E-1,-3.0048805E-1,-3.3907298E-2,-2.251155E-2,1.9700985E-1,-1.9456963E-1,-3.4046307E-1,-2.2802244E-1,1.3573696E-2,8.480855E-2,-2.52291E-1,-3.3907298E-2,-2.6257837E-1,-1.3373363E-1,2.6007745E-1,-2.2293466E-1,1.6574538E-1,-2.9840353E-1,-3.4651583E-1,1.9700985E-1,-1.6243082E-1,1.921585E-2,-2.72746E-1,-1.666955E-1,1.7449501E-1,-3.449884E-1,6.591905E-2,7.7822626E-2,-1.6243082E-1,3.5880947E-1,-3.3907298E-2,1.2076809E-1,-1.5151796E-1,-1.9401726E-1,-2.6850942E-1,-7.938275E-2,2.655717E-1,-1.6243082E-1,1.4624478E-1,-2.298079E-1,-3.305633E-1,-2.676215E-1,1.2368133E-1,-5.268134E-2,2.517491E-1,-2.1290283E-1,2.1324076E-1,3.4662262E-1,1.1105285E-1,3.311299E-1,-4.2752802E-2,-2.995129E-1,-7.165543E-2,-1.7886142E-1,2.655717E-1,1.9700985E-1,-2.7821591E-1,-1.2405873E-1,1.6361086E-1,2.4790755E-1,-5.816679E-2,-2.15384E-2,-2.1097396E-1,-1.3059229E-1,4.027523E-1,-3.085253E-1,2.8687E-1,-2.8661698E-1,1.5015817E-1,-9.5562376E-2,3.3131254E-1,-1.18370585E-1,8.4628664E-2,-2.933142E-1,-6.419818E-2,3.72968E-1,-4.895926E-2,1.6944878E-1,-5.5914164E-2,1.4673167E-1,-2.4876532E-1,9.9202015E-2,-3.217659E-1,3.2983416E-1,4.3985334E-1,-1.152776E-1,4.0497136E-1,-8.826619E-3,3.8715726E-1,5.9004135E-2,-3.5355732E-1,-1.3373363E-1,3.311299E-1,-2.5189573E-1,-3.6948484E-1,-3.0484876E-1,2.7575577E-2,-1.8365489E-1,-3.829749E-1,-2.1507046E-1,-3.402289E-1,-2.52291E-1,-4.3623645E-2,2.8687E-1,6.591905E-2,2.5242494E-2,3.2745337E-1,-2.676215E-1,6.591905E-2,-2.676215E-1,2.2180818E-1,3.0430174E-1,-2.7578604E-1,4.155512E-1,-5.5688217E-2,-2.4858555E-1,3.2218242E-1,-9.8424435E-2,3.5081178E-1,2.622966E-2,-3.0750567E-1,1.8384783E-1,-2.2206633E-1,-2.3851714E-1,1.658084E-1,3.017264E-1,-1.1397946E-1,-2.5610608E-1,-1.286665E-1,5.9191763E-2,-2.2963335E-1,3.0589472E-3,-1.9293654E-1,2.0592455E-2,-2.52291E-1,-3.8538274E-1,-3.3741212E-1,-1.1442851E-1,-2.80068E-1,-8.3721615E-2,-3.3888105E-1,1.6574538E-1,-2.0665284E-1,2.2226453E-1,-3.3907298E-2,-1.7740698E-1,-3.81259E-1,-2.3229036E-1,9.4119914E-2,-1.3993141E-1,2.3093233E-1,-2.4183095E-1,-8.214834E-2,-2.0255789E-1,1.0714968E-1,1.3546538E-1,-1.3993141E-1,-2.4561827E-1,7.4899495E-2,-5.463423E-2,-2.1561924E-1,4.2148978E-2,1.8244687E-1,-1.5796944E-1,5.895374E-2,1.14860445E-1,-1.2909995E-1,-1.3218437E-1,-3.147591E-1,1.20175794E-1,-1.01074874E-1,6.591905E-2,-2.9126856E-1,-1.7515008E-1,1.6506557E-1,-3.268475E-1,-1.9271146E-1,-3.4668726E-1,-1.4617733E-2,-1.7365667E-1,-3.2862246E-1,-1.7028195E-1,1.0714968E-1,-8.987595E-4,-3.114266E-1,1.7624749E-1,-9.438461E-2,-3.3907298E-2,-3.4716424E-1,5.9191763E-2,-1.8622676E-1,3.5081178E-1,-1.1660211E-1,3.3760923E-1,5.4531794E-2,-3.3907298E-2,1.9700985E-1,-9.147502E-2,1.165245E-1,3.2313037E-1,-9.5562376E-2,-2.6135802E-1,2.4407418E-2,-2.159151E-1,1.0234808E-2,3.2942167E-1,9.4119914E-2,-2.470409E-2,2.7151957E-1,2.5094873E-1,-2.676215E-1,-1.2951672E-1,-9.240815E-3,2.6569825E-1,-1.2654917E-1,3.0430174E-1,6.591905E-2,2.5023124E-1,3.6482924E-1,-4.5200873E-2,2.6944306E-1,-6.2016316E-2,2.7136445E-1,3.7324244E-1,1.885392E-1,1.6574538E-1,-2.8483465E-1,6.1947342E-2,-3.1326386E-1,2.776915E-1,1.0791547E-1,-3.959968E-2,2.9487848E-1,1.9013463E-1,-4.0746797E-2,3.3991745E-1,-3.217659E-1,-2.52291E-1,1.4109667E-1,-3.585633E-1,-1.3059229E-1,2.1109538E-1,-9.344304E-2,3.287635E-1,-1.6243082E-1,1.0725649E-2,2.4191701E-1,3.4107572E-1,-2.3355998E-1,-3.0100664E-1,-6.6578545E-2,3.1251326E-1,-2.1661555E-2,7.0385225E-2,3.292348E-1,-3.1744817E-1,1.5797323E-1,1.9283085E-1,4.520192E-1,1.13154E-1,-1.8591818E-1,-1.3373363E-1,9.4119914E-2,-1.9346526E-1,-2.875243E-1,-1.4928223E-1,-3.410176E-1,-4.1465517E-2,-1.3810055E-1,-2.3355998E-1,6.591905E-2,-3.406846E-1,-1.5573034E-1,-3.9768958E-1,-1.0421487E-1,-2.3627193E-1,1.4089508E-1,2.8687E-1,-3.3907298E-2,1.4902467E-1,3.9881432E-1,-1.1472092E-1,2.6198038E-1,-5.816679E-2,-3.1757763E-1,-1.3373363E-1,1.6902398E-1,-2.7544263E-1,-9.931E-2,2.9087207E-1,-6.686263E-2,-1.8628639E-1,-3.2165423E-2,2.624775E-1,4.6213042E-2,-2.8159794E-1,6.3823745E-2,3.7385973E-1,1.7289512E-2,-1.1774583E-1,2.4888277E-2,-8.032985E-2,-2.5958073E-1,-1.3059229E-1,1.5946849E-1,3.2080024E-1,9.376486E-2,-3.114266E-1,1.0714968E-1,-3.085253E-1,6.591905E-2,3.8159567E-1,-6.8766356E-2,-1.7630388E-1,-3.1300637E-1,-2.2206633E-1,2.655717E-1,-1.663123E-1,-3.2796198E-1,-3.3907298E-2,1.9283085E-1,3.777557E-1,6.591905E-2,3.4167296E-1,6.591905E-2,5.063557E-2,-2.7258778E-1,7.4333474E-2,-2.0778029E-1,3.982908E-1,1.5216073E-1,8.834167E-2,-1.534863E-1,-3.3907298E-2,3.777557E-1,8.248576E-2,3.9920866E-1,-2.289038E-1,1.3803737E-1,1.7289512E-2,3.932021E-1,3.1883213E-1,-1.0134572E-1,3.3144352E-1,-2.8040043E-1,2.4392805E-1,-2.3627193E-1,1.9806528E-1,-8.684576E-3,-3.3666566E-1,1.7099258E-1,-2.881573E-1,2.8687E-1,3.3788988E-1,1.4709811E-1,1.7624749E-1,-2.2154066E-1,3.185796E-1,4.442224E-1,3.214226E-1,1.8262056E-1,1.9447972E-1,-9.961004E-2,3.0389673E-1,-3.1781275E-2,3.856319E-1,4.6748477E-1,-1.6243082E-1,2.8309208E-1,2.1404305E-1,4.2397428E-1,1.23619914E-1,-2.676215E-1,-1.9927372E-1,6.591905E-2,4.5074686E-1,6.591905E-2,-1.3059229E-1,3.5429624E-1,2.37164E-1,3.5218596E-1,-9.0118065E-2,2.0689952E-1,3.603979E-1,-8.826619E-3,2.2259839E-1,-2.1488968E-1,4.227559E-1,2.3889512E-1,3.0571538E-1,-9.5562376E-2,4.313122E-1,3.837271E-1,-1.6937673E-1,3.7362415E-1,5.4531794E-2,4.4789007E-1,-7.257066E-2,-3.159032E-1,-2.773249E-1,-1.4617733E-2,1.7289512E-2,-3.7668124E-1,-1.6243082E-1,2.3093233E-1,2.3888983E-1,-5.729165E-2,1.3647984E-1,-7.383867E-2,-7.257066E-2,3.8380942E-1,3.7772648E-2,2.9688337E-1,-7.165543E-2,3.5065633E-1,1.1105285E-1,-1.9424665E-1,1.6574538E-1,-1.3373363E-1,-3.085253E-1,-4.3623645E-2,-1.3373363E-1,-3.3907298E-2,3.4455398E-1,4.476107E-2,-1.0169957E-1,2.4641472E-1,-2.840025E-1,-5.5688217E-2,1.7509677E-1,-9.042579E-2,3.4789172E-1,1.851532E-1,-3.3625036E-2,1.9745068E-1,-7.7489115E-2,-3.387991E-1,3.12544E-1,1.01634346E-1,-1.7784244E-1,1.6134036E-1,4.2818597E-1,3.305297E-1,9.629079E-3,3.1340733E-1,1.5820898E-1,-1.2852174E-1,1.7202862E-1,8.982099E-3,2.4454987E-1,1.099154E-1,3.0686367E-1,9.473462E-2,4.257233E-1,5.2797124E-2,3.8499567E-1,1.4238681E-1,-5.729165E-2,4.2896497E-1,3.3091847E-2,3.7126145E-1,4.4583276E-1,3.2090324E-1,-1.4567938E-1,1.5242036E-1,3.2561275E-1,2.2340184E-1,-3.441505E-1,2.3241588E-1,4.3659967E-1,3.0426848E-1,4.020159E-1,-1.3148369E-1,4.1588223E-1,-8.8397056E-2,-1.7065732E-1,-3.8150704E-1,1.6574538E-1,-2.0549636E-1,-1.3441461E-2,2.345479E-1],"categories":[],"categories_nodes":[],"categories_segments":[],"categories_sizes":[],"default_left":[0,0,0,0,0,0,0,0,0,0,0,0,0,0,0,0,0,0,0,0,0,0,0,0,0,0,0,0,0,0,0,0,0,0,0,0,0,0,0,0,0,0,0,0,0,0,0,0,0,0,0,0,0,0,0,0,0,0,0,0,0,0,0,0,0,0,0,0,0,0,0,0,0,0,0,0,0,0,0,0,0,0,0,0,0,0,0,0,0,0,0,0,0,0,0,0,0,0,0,0,0,0,0,0,0,0,0,0,0,0,0,0,0,0,0,0,0,0,0,0,0,0,0,0,0,0,0,0,0,0,0,0,0,0,0,0,0,0,0,0,0,0,0,0,0,0,0,0,0,0,0,0,0,0,0,0,0,0,0,0,0,0,0,0,0,0,0,0,0,0,0,0,0,0,0,0,0,0,0,0,0,0,0,0,0,0,0,0,0,0,0,0,0,0,0,0,0,0,0,0,0,0,0,0,0,0,0,0,0,0,0,0,0,0,0,0,0,0,0,0,0,0,0,0,0,0,0,0,0,0,0,0,0,0,0,0,0,0,0,0,0,0,0,0,0,0,0,0,0,0,0,0,0,0,0,0,0,0,0,0,0,0,0,0,0,0,0,0,0,0,0,0,0,0,0,0,0,0,0,0,0,0,0,0,0,0,0,0,0,0,0,0,0,0,0,0,0,0,0,0,0,0,0,0,0,0,0,0,0,0,0,0,0,0,0,0,0,0,0,0,0,0,0,0,0,0,0,0,0,0,0,0,0,0,0,0,0,0,0,0,0,0,0,0,0,0,0,0,0,0,0,0,0,0,0,0,0,0,0,0,0,0,0,0,0,0,0,0,0,0,0,0,0,0,0,0,0,0,0,0,0,0,0,0,0,0,0,0,0,0,0,0,0,0,0,0,0,0,0,0,0,0,0,0,0,0,0,0,0,0,0,0,0,0,0,0,0,0,0,0,0,0,0,0,0,0,0,0,0,0,0,0,0,0,0,0,0,0,0,0,0,0,0,0,0,0,0,0,0,0,0,0,0,0,0,0,0,0,0,0,0,0,0,0,0,0,0,0,0,0,0,0,0,0,0,0,0,0,0,0,0,0,0,0,0,0,0,0,0,0,0,0,0,0,0,0,0,0,0,0,0,0,0,0,0,0,0,0,0,0,0,0,0,0,0,0,0,0,0,0,0,0,0,0,0,0,0,0,0,0,0,0,0,0,0,0,0,0,0,0,0,0,0,0,0,0,0,0,0,0,0,0,0,0,0,0,0,0,0,0,0,0,0,0,0,0,0,0,0,0,0,0,0,0,0,0,0,0,0,0,0,0,0,0,0,0,0,0,0,0,0,0,0,0,0,0,0,0,0,0,0,0,0,0,0,0,0,0,0,0,0,0,0,0,0,0,0,0,0,0,0,0,0,0,0,0,0,0,0,0,0,0,0,0,0,0,0,0,0,0,0,0,0,0,0,0,0,0,0,0,0,0,0,0,0,0,0,0,0,0,0,0,0,0,0,0,0,0,0,0,0,0,0,0,0,0,0,0,0,0,0,0,0,0,0,0,0,0,0,0,0,0,0,0,0,0,0,0,0,0,0,0,0,0,0,0,0,0,0,0,0,0,0,0,0,0,0,0,0,0,0,0,0,0,0,0,0,0,0,0,0,0,0,0,0,0,0,0,0,0,0,0,0,0,0,0,0,0,0,0,0,0,0,0,0,0,0,0,0,0,0,0,0,0,0,0,0,0,0,0,0,0,0,0,0,0,0,0,0,0,0,0,0,0,0,0,0,0,0,0,0,0,0,0,0,0,0,0,0,0,0,0,0,0,0,0,0,0,0,0,0,0,0,0,0,0,0,0,0,0,0,0,0,0,0,0,0,0,0,0,0,0,0,0,0,0,0,0,0,0,0,0,0,0,0,0,0,0,0,0,0,0,0,0,0,0,0,0,0,0,0,0,0,0,0,0,0,0,0,0,0,0,0,0,0,0,0,0,0,0,0,0,0,0,0,0,0,0,0,0,0,0,0,0,0,0,0,0,0,0,0,0,0,0,0,0,0,0,0,0,0,0,0,0,0,0,0,0,0,0,0,0,0,0,0,0,0,0,0,0,0,0,0,0,0,0,0,0,0,0,0,0,0,0,0,0,0,0,0,0,0,0,0,0,0,0,0,0,0,0,0,0,0,0,0,0,0,0,0,0,0,0,0,0,0,0,0,0,0,0,0,0,0,0,0,0,0,0,0,0,0,0,0,0,0,0,0,0,0,0,0,0,0,0,0,0,0,0,0,0,0,0,0,0,0,0,0,0,0,0,0,0,0,0,0,0,0,0,0,0,0,0,0,0,0,0,0,0,0,0,0,0,0,0,0,0,0,0,0,0,0,0,0,0,0,0,0,0,0,0,0,0,0,0,0,0,0,0,0,0,0,0,0,0,0,0,0,0,0,0,0,0,0,0,0,0,0,0,0,0,0,0,0,0,0,0,0,0,0,0,0,0,0,0,0,0,0,0,0,0,0,0,0,0,0,0,0,0,0,0,0,0,0,0,0,0,0,0,0,0,0,0,0,0,0,0,0,0,0,0,0,0,0,0,0,0,0,0,0,0,0,0,0,0,0,0,0,0,0,0,0,0,0,0,0,0,0,0,0,0,0,0,0,0,0,0,0,0,0,0,0,0,0,0,0,0,0,0,0,0,0,0,0,0,0,0,0,0,0,0,0,0,0,0,0,0,0,0,0,0,0,0,0,0,0,0,0,0,0,0,0,0,0,0,0,0,0,0,0,0,0,0,0,0,0,0,0,0,0,0,0,0,0,0,0,0,0,0,0,0,0,0,0,0,0,0,0,0,0,0,0,0,0,0,0,0,0,0,0,0,0,0,0,0,0,0,0,0,0,0,0,0,0,0,0,0,0,0,0,0,0,0,0,0,0,0,0,0,0,0,0,0,0],"id":0,"left_children":[1,3,5,7,9,11,13,15,17,19,21,23,25,27,29,31,33,35,37,39,41,43,45,47,49,51,53,55,57,59,61,-1,63,65,67,69,71,73,75,77,79,81,83,85,87,89,91,93,95,97,99,101,103,105,107,109,111,113,115,117,119,121,123,125,-1,127,129,131,133,-1,135,137,139,141,143,145,147,149,151,153,155,157,159,161,163,165,167,169,171,173,175,177,179,181,183,185,187,189,191,193,195,197,199,201,203,205,207,209,211,213,215,217,219,221,223,225,227,229,231,233,235,237,239,241,243,245,247,249,-1,251,253,255,257,259,-1,261,263,265,267,269,271,273,275,277,279,-1,-1,281,283,285,287,289,291,293,295,297,299,301,303,305,307,309,311,-1,313,315,317,319,321,-1,323,325,327,-1,329,331,333,335,337,-1,339,-1,341,-1,-1,343,345,347,349,351,353,355,357,-1,359,361,363,365,367,369,371,373,375,377,379,381,383,385,387,-1,389,391,393,395,397,399,401,403,405,407,409,411,413,415,417,419,421,423,425,427,429,431,433,435,-1,437,439,441,443,445,447,449,451,453,455,-1,-1,457,-1,459,461,-1,-1,-1,463,465,467,469,471,-1,473,475,477,-1,479,-1,-1,481,483,-1,485,-1,-1,487,489,491,493,495,497,499,501,-1,503,-1,505,-1,507,509,511,513,515,517,519,521,523,525,527,529,531,533,535,-1,537,539,541,543,-1,545,547,549,551,553,555,557,-1,559,561,-1,563,-1,-1,565,567,-1,569,571,573,575,577,579,581,583,585,587,589,591,593,595,597,599,601,603,605,607,609,611,-1,613,615,617,-1,619,621,623,625,627,629,631,633,635,-1,637,639,641,643,645,647,649,651,653,655,657,-1,659,661,-1,-1,663,665,667,669,671,-1,673,675,677,679,681,-1,683,-1,685,-1,-1,-1,687,689,691,693,695,697,-1,699,-1,701,703,705,707,709,711,713,715,717,719,721,723,725,-1,727,729,731,733,735,737,739,741,-1,743,745,747,-1,749,751,753,755,757,759,-1,761,763,-1,765,767,769,771,773,775,777,779,781,783,785,787,789,791,-1,793,795,-1,-1,-1,-1,-1,-1,797,799,801,-1,803,805,807,809,811,813,-1,-1,815,817,819,821,823,-1,825,827,829,-1,831,833,-1,835,-1,837,839,841,843,845,847,849,851,-1,853,855,857,-1,859,861,863,-1,-1,865,867,869,-1,-1,871,873,875,877,879,881,883,885,887,889,891,893,895,897,899,-1,-1,901,903,-1,905,907,909,911,913,915,917,919,921,923,925,-1,-1,927,929,931,933,935,937,939,941,943,945,947,-1,-1,949,951,953,-1,-1,-1,-1,955,-1,-1,-1,957,-1,959,961,963,965,967,969,971,973,975,977,979,981,983,-1,985,987,989,991,993,-1,995,997,999,1001,1003,-1,1005,1007,1009,1011,-1,1013,1015,1017,1019,1021,1023,1025,-1,1027,1029,1031,1033,1035,1037,-1,1039,1041,1043,1045,1047,1049,1051,1053,1055,1057,1059,1061,1063,-1,1065,1067,1069,-1,1071,1073,1075,1077,-1,1079,1081,-1,1083,1085,1087,1089,1091,-1,1093,1095,1097,1099,1101,-1,1103,1105,1107,1109,1111,1113,1115,1117,-1,1119,1121,1123,1125,1127,-1,1129,1131,1133,-1,-1,-1,1135,1137,1139,-1,1141,-1,1143,-1,-1,1145,-1,-1,-1,1147,1149,1151,1153,-1,-1,1155,-1,1157,1159,-1,1161,1163,1165,-1,-1,-1,1167,1169,1171,-1,1173,1175,1177,1179,1181,1183,1185,-1,-1,1187,1189,-1,-1,1191,1193,1195,-1,1197,1199,1201,1203,-1,-1,1205,1207,1209,1211,1213,1215,-1,1217,-1,1219,-1,1221,-1,-1,1223,1225,1227,1229,1231,1233,1235,1237,1239,1241,1243,1245,-1,-1,1247,1249,1251,1253,1255,1257,1259,1261,1263,1265,1267,1269,1271,1273,1275,1277,1279,1281,-1,1283,1285,1287,1289,1291,1293,1295,-1,-1,-1,1297,1299,1301,-1,-1,-1,-1,-1,-1,-1,-1,-1,-1,-1,-1,-1,-1,-1,-1,-1,-1,-1,-1,-1,-1,-1,-1,-1,-1,-1,-1,-1,-1,-1,-1,-1,-1,-1,-1,-1,-1,-1,-1,-1,-1,-1,-1,-1,-1,-1,-1,-1,-1,-1,-1,-1,-1,-1,-1,-1,-1,-1,-1,-1,-1,-1,-1,-1,-1,-1,-1,-1,-1,-1,-1,-1,-1,-1,-1,-1,-1,-1,-1,-1,-1,-1,-1,-1,-1,-1,-1,-1,-1,-1,-1,-1,-1,-1,-1,-1,-1,-1,-1,-1,-1,-1,-1,-1,-1,-1,-1,-1,-1,-1,-1,-1,-1,-1,-1,-1,-1,-1,-1,-1,-1,-1,-1,-1,-1,-1,-1,-1,-1,-1,-1,-1,-1,-1,-1,-1,-1,-1,-1,-1,-1,-1,-1,-1,-1,-1,-1,-1,-1,-1,-1,-1,-1,-1,-1,-1,-1,-1,-1,-1,-1,-1,-1,-1,-1,-1,-1,-1,-1,-1,-1,-1,-1,-1,-1,-1,-1,-1,-1,-1,-1,-1,-1,-1,-1,-1,-1,-1,-1,-1,-1,-1,-1,-1,-1,-1,-1,-1,-1,-1,-1,-1,-1,-1,-1,-1,-1,-1,-1,-1,-1,-1,-1,-1,-1,-1,-1,-1,-1,-1,-1,-1,-1,-1,-1,-1,-1,-1,-1,-1,-1,-1,-1,-1,-1,-1,-1,-1,-1,-1,-1,-1,-1,-1,-1,-1,-1,-1,-1,-1,-1,-1,-1,-1,-1,-1,-1,-1,-1,-1,-1,-1,-1,-1,-1,-1,-1,-1,-1,-1,-1,-1,-1,-1,-1,-1,-1,-1,-1,-1,-1,-1,-1,-1,-1,-1,-1,-1,-1,-1,-1,-1,-1,-1,-1,-1,-1,-1,-1,-1,-1,-1,-1,-1,-1,-1,-1,-1,-1,-1,-1,-1,-1,-1,-1,-1,-1,-1,-1,-1,-1,-1,-1,-1,-1,-1,-1,-1,-1,-1,-1,-1,-1,-1,-1,-1,-1,-1,-1,-1,-1,-1,-1,-1,-1,-1,-1,-1,-1,-1,-1,-1,-1,-1,-1,-1,-1,-1,-1,-1,-1,-1,-1,-1,-1,-1,-1,-1,-1,-1,-1,-1,-1,-1,-1,-1,-1,-1,-1,-1,-1,-1,-1,-1,-1,-1,-1,-1,-1,-1,-1,-1,-1,-1,-1,-1,-1,-1,-1,-1,-1,-1,-1,-1,-1,-1,-1,-1,-1,-1,-1,-1,-1,-1,-1,-1,-1,-1,-1,-1,-1,-1,-1,-1,-1,-1,-1,-1,-1,-1,-1,-1,-1,-1,-1,-1,-1,-1,-1,-1,-1,-1,-1,-1,-1,-1,-1,-1,-1,-1,-1,-1,-1,-1,-1,-1,-1,-1,-1,-1,-1,-1,-1,-1,-1,-1,-1,-1,-1,-1,-1,-1,-1,-1,-1,-1,-1,-1,-1,-1,-1,-1,-1,-1,-1,-1,-1,-1,-1,-1,-1,-1,-1,-1,-1,-1,-1,-1,-1,-1,-1,-1,-1,-1,-1,-1,-1],"loss_changes":[2.0429951E4,3.8572246E3,1.8079941E3,2.0621777E2,1.5049534E3,1.3393296E3,4.0169727E2,8.322168E1,1.7233203E2,5.3837885E2,2.82698E2,3.1390076E2,2.0075171E2,3.9005908E2,6.390635E2,1.1494141E0,4.8944824E1,2.311971E1,2.4774658E1,5.298602E2,5.977742E2,8.319299E1,2.9959198E2,5.6824516E1,2.6890918E2,1.1718392E2,3.1260376E1,1.02508575E2,9.305859E1,1.3841318E2,3.6137012E2,0E0,1.1650391E0,5.7255352E1,4.494043E1,1.7789764E1,4.0220726E1,3.4868896E1,6.453369E0,1.0798723E2,2.5068079E2,1.2926562E2,1.830224E2,1.2763092E1,1.4713623E1,6.7935455E1,3.2046265E1,1.5001553E1,4.5376842E1,6.4578125E1,7.5178085E1,3.140181E1,3.6411465E1,1.0451599E1,9.445243E0,6.694133E1,3.4033447E1,7.939087E1,2.4259277E1,5.023607E1,2.7327347E1,2.864353E2,1.4427075E2,3.8731804E0,0E0,1.2917023E1,1.0407413E1,6.885254E0,1.0585017E2,0E0,1.6598488E1,6.0195274E0,7.987998E0,1.758374E1,1.48038025E1,2.1616794E-1,5.4196777E0,4.5853836E1,2.0570374E1,1.46932E2,1.3214325E2,4.071814E1,2.4025677E1,1.3632309E2,2.462709E1,6.882492E0,8.793745E0,1.2643986E1,9.249634E0,2.5150635E1,4.5735664E1,2.3073242E1,1.2528084E1,9.106926E0,2.5465498E0,3.175872E1,1.9813545E1,5.320517E1,7.0179565E1,4.377636E1,8.109236E1,1.8391632E1,1.1895289E1,9.114727E0,3.6042786E1,1.5834988E1,4.9398193E0,7.145955E0,2.5535607E0,5.1986595E1,3.5249695E1,1.4502594E1,1.6240814E1,5.3690186E1,4.3300194E1,4.324298E1,1.2161377E1,5.7777367E0,1.9143002E1,9.472837E0,5.879471E0,1.6780127E2,2.1170221E2,1.0519946E2,9.170555E1,3.7751994E0,2.0347977E0,4.412807E0,0E0,4.2248416E-1,1.26122055E1,1.3493652E1,4.206006E1,2.376202E1,0E0,6.870243E0,8.543113E0,6.7360854E0,5.186615E0,6.301335E0,8.026178E0,3.3196073E0,4.9599E0,9.62307E0,7.6586914E0,0E0,0E0,8.17313E0,3.7480469E0,3.0464764E0,2.439898E1,1.2912857E1,1.5628159E1,4.1329834E1,8.4252365E1,1.6624456E1,1.0462085E2,1.0521395E1,1.675055E1,9.27125E0,1.1963396E1,1.6849442E1,6.967574E1,0E0,6.7059326E0,7.978592E0,1.8568554E0,5.1304955E0,2.694562E0,0E0,3.6591039E0,6.369995E0,1.3342064E1,0E0,8.602882E0,1.52738695E1,1.19357605E1,1.4973511E1,4.5144043E0,0E0,6.883089E0,0E0,8.141495E0,0E0,0E0,2.1662231E1,1.0412083E1,2.1870794E1,2.4879704E0,3.2753082E1,2.2440762E1,4.010086E1,3.9324463E1,0E0,3.438385E0,5.9222626E1,1.8082153E1,1.2850143E1,1.426989E1,4.6118135E0,4.2390814E0,4.4554367E0,3.253046E0,9.265808E0,3.446675E1,2.8217926E0,1.6947193E1,1.4847412E0,2.2038932E0,0E0,2.3250055E0,3.2423897E0,3.2004719E0,2.8184288E1,3.8365005E1,2.5198677E1,2.3459723E1,8.787323E0,1.2071693E1,1.5973066E1,2.088504E1,3.1678894E1,9.4036255E0,1.7439653E1,4.7333145E0,1.9085876E1,1.1401623E1,1.0540283E1,3.7983727E1,2.1973686E0,8.6522E0,1.4211384E1,2.471572E1,7.886956E0,0E0,2.2253418E-1,8.383675E0,1.7040387E2,7.1171875E1,1.5173288E2,3.7213745E1,3.1424927E1,4.184961E1,4.8921013E1,2.7145844E0,0E0,0E0,3.3891296E-1,0E0,1.961323E0,2.6345706E0,0E0,0E0,0E0,9.84502E0,8.308624E0,2.4475098E0,1.2010906E1,5.8374023E0,0E0,1.3407417E1,5.6390724E0,1.95435E1,0E0,6.717525E0,0E0,0E0,2.1754065E0,5.065933E0,0E0,7.1375923E0,0E0,0E0,3.0108938E0,2.9005322E0,5.1430054E0,4.862953E0,7.230047E0,3.7624283E0,3.7517114E0,8.430847E0,0E0,2.3074498E0,0E0,4.3881836E0,0E0,2.656561E0,1.2820141E1,1.1648407E1,1.364211E1,1.3402634E1,1.3004625E1,1.2431587E1,1.9466583E1,2.95492E1,7.8386E1,6.4020706E1,1.1351784E1,1.3349681E1,1.9015625E1,4.2745472E1,0E0,6.8490915E0,2.849163E1,7.4315186E0,6.3926964E0,0E0,4.275529E0,1.0257971E1,1.0698021E1,9.875496E0,1.8355164E1,6.683714E1,1.3508358E1,0E0,3.3209991E0,8.272825E0,0E0,1.0760269E0,0E0,0E0,2.737979E0,5.250866E0,0E0,5.8654714E0,2.3345947E0,1.8213135E1,9.783003E0,4.343132E0,7.4259796E0,1.4371948E1,5.4497E0,1.1582882E1,7.8879685E0,1.1660114E1,4.800293E0,5.977749E0,1.3606567E0,7.201912E0,1.0700314E1,1.9507885E0,8.510082E0,1.1415024E0,2.3274672E1,1.5060135E1,8.156424E0,0E0,2.7219328E1,1.0254639E1,2.7485564E0,0E0,2.7689636E1,6.518887E1,2.0000952E1,1.4222828E1,3.513382E1,7.0389643E0,2.567131E1,1.7665894E1,3.5550537E0,0E0,2.3345472E1,2.4928791E1,1.520958E0,3.4740067E0,3.4086227E0,9.627121E0,5.066264E0,1.7912292E-1,2.8059235E0,6.732212E0,4.4271245E0,0E0,4.455324E0,4.70371E0,0E0,0E0,9.028233E0,5.29035E0,1.4129147E1,3.4378815E0,7.452277E0,0E0,1.3340563E1,7.120018E0,2.080597E0,4.1872025E0,5.9694967E0,0E0,1.320427E0,0E0,4.3600826E0,0E0,0E0,0E0,1.7833994E1,1.9236298E0,1.3166445E1,3.8033707E1,1.1147537E0,1.0808779E1,0E0,3.6727364E1,0E0,6.074188E0,2.6159674E1,2.2041435E0,4.4291577E0,1.1564472E1,9.495828E0,2.184439E1,1.9832886E1,4.031021E1,5.39239E0,5.662903E0,1.0342606E1,9.458698E0,0E0,3.6762762E0,4.7210693E0,1.5433212E1,7.815932E0,1.54820595E1,2.9525269E1,7.1621094E0,7.054966E0,0E0,1.3515968E0,2.9660807E0,3.10632E-1,0E0,1.1036386E1,2.1247854E1,9.513908E0,9.573038E0,2.0029082E0,4.9443216E0,0E0,7.114816E-1,7.325072E0,0E0,4.809192E1,6.446757E1,6.593646E1,3.843628E1,1.1003197E2,5.2261353E1,2.6611969E1,1.4661743E1,9.562195E0,4.880481E1,7.265187E1,2.9651367E1,4.704685E0,2.1917809E1,0E0,5.3343964E0,1.3001318E0,0E0,0E0,0E0,0E0,0E0,0E0,8.673219E0,3.5567322E0,6.9359655E0,0E0,1.793457E0,4.0660944E0,2.3013659E0,1.4272705E1,6.604004E0,1.0807152E1,0E0,0E0,4.70711E0,1.2600584E0,1.1594362E0,4.938575E0,1.0053668E0,0E0,1.0877937E0,2.7704773E0,6.2419405E0,0E0,3.2169964E0,7.783742E-1,0E0,4.1713276E0,0E0,5.267271E0,5.899048E-1,3.2004719E0,3.4892273E0,9.466782E0,4.4941235E0,1.7584922E0,3.2903996E0,0E0,7.8937016E0,5.2502747E0,3.948182E0,0E0,3.1957324E0,3.3292847E0,4.455231E0,0E0,0E0,8.325809E0,9.439108E0,1.584732E0,0E0,0E0,8.143944E0,5.051346E0,8.114471E0,8.144394E0,1.1548792E1,4.700568E0,5.0397644E0,1.3413635E1,1.044285E1,1.49555435E1,1.2428417E1,3.1670818E1,3.343499E1,6.344922E1,1.820779E1,0E0,0E0,1.8972303E1,1.4304195E1,0E0,1.6462158E1,3.0553392E1,7.5088654E0,1.0318336E1,5.2233715E0,2.5131378E0,1.2268863E1,5.711609E0,7.312088E-1,8.5332656E-1,3.10632E-1,0E0,0E0,9.268154E0,2.390869E0,1.1405914E1,1.2403199E1,9.27079E0,1.3138786E1,1.20552E1,1.97192E1,9.602844E0,2.1066992E1,9.847871E0,0E0,0E0,2.2496605E0,3.2280025E0,5.339113E0,0E0,0E0,0E0,0E0,1.9492655E0,0E0,0E0,0E0,4.343872E-1,0E0,4.9659367E0,4.44989E0,4.9529457E0,1.517236E0,6.339798E-1,4.0427647E0,6.085063E0,7.0392914E0,3.7449532E0,5.926361E0,1.0286433E1,4.0277348E0,1.6983543E1,0E0,6.7535863E0,1.0646716E1,1.051741E1,7.4064875E0,3.9624176E0,0E0,2.42847E1,1.3159828E0,4.6698E0,7.6551056E0,3.039548E0,0E0,5.207691E0,9.527776E0,1.7332134E0,2.1367085E0,0E0,1.1904475E1,2.72229E0,1.0606622E0,9.697507E0,1.0897848E1,8.466118E0,1.1749214E1,0E0,9.5949745E-1,2.0973259E1,1.2887325E1,8.989525E0,1.0636782E1,4.302187E-1,0E0,1.1061981E1,2.7341328E1,4.541319E1,1.1223717E1,6.7191467E0,1.5990385E1,1.2053253E1,1.3302509E1,4.942337E1,3.3368286E1,5.0329313E0,2.9699898E-1,4.137033E1,0E0,9.798584E0,1.0832886E1,1.0194855E1,0E0,1.5069832E1,9.001352E0,2.6341904E1,1.53988285E1,0E0,1.6101074E-1,3.9525194E0,0E0,1.3255832E0,3.123558E0,7.097168E0,6.2105694E0,1.8245858E0,0E0,5.8808746E0,1.3867836E0,4.23313E0,1.961323E0,6.428623E-1,0E0,6.321494E0,3.0692453E0,2.303033E0,2.5666504E0,5.2753773E0,3.7958207E0,1.3439968E1,1.3506843E1,0E0,3.1058216E0,1.5742462E1,9.856886E0,3.6145186E0,2.1316166E0,0E0,5.8369036E0,3.2409697E0,8.811276E0,0E0,0E0,0E0,2.137764E0,6.267322E0,2.9995575E0,0E0,1.1139259E0,0E0,1.1594362E0,0E0,0E0,7.509384E-1,0E0,0E0,0E0,1.216276E1,9.423699E0,2.3244774E1,9.240183E0,0E0,0E0,3.739706E0,0E0,6.1917496E0,2.4523165E1,0E0,3.8754883E0,8.943989E0,1.8802662E1,0E0,0E0,0E0,7.3913636E0,1.0124851E1,1.0643534E1,0E0,1.2075117E1,1.3810303E1,1.4402048E1,7.719635E0,1.5490387E1,4.2118248E1,1.894934E1,0E0,0E0,2.1401367E0,6.0693345E0,0E0,0E0,4.167843E0,7.3049383E0,2.04713E0,0E0,2.5327148E0,1.1036179E1,6.658142E0,9.474495E0,0E0,0E0,5.8990726E0,7.4373493E0,5.01416E0,1.3092682E1,4.560547E0,2.1699368E1,0E0,5.2204704E0,0E0,8.847923E-1,0E0,1.946693E0,0E0,0E0,4.215458E0,4.4811163E0,5.5206738E0,1.8681778E1,6.8615837E0,1.1460088E1,1.0618438E1,5.1629558E0,1.9980175E0,1.7680688E0,4.2736173E-2,3.8480139E0,0E0,0E0,5.8408165E0,1.1810627E0,2.7261372E1,7.006909E1,5.7550842E1,3.313095E0,2.6604492E1,5.4300987E1,4.1376953E0,5.215161E1,8.6384254E1,7.600127E1,3.910959E1,5.0783234E1,3.8731003E1,3.552475E1,1.5808136E1,2.8626373E1,0E0,7.749115E0,2.79965E1,1.793811E1,3.6705376E1,7.297821E-1,2.160571E1,2.6638916E1,0E0,0E0,0E0,7.2740173E0,3.4668643E0,5.8729935E0,0E0,0E0,0E0,0E0,0E0,0E0,0E0,0E0,0E0,0E0,0E0,0E0,0E0,0E0,0E0,0E0,0E0,0E0,0E0,0E0,0E0,0E0,0E0,0E0,0E0,0E0,0E0,0E0,0E0,0E0,0E0,0E0,0E0,0E0,0E0,0E0,0E0,0E0,0E0,0E0,0E0,0E0,0E0,0E0,0E0,0E0,0E0,0E0,0E0,0E0,0E0,0E0,0E0,0E0,0E0,0E0,0E0,0E0,0E0,0E0,0E0,0E0,0E0,0E0,0E0,0E0,0E0,0E0,0E0,0E0,0E0,0E0,0E0,0E0,0E0,0E0,0E0,0E0,0E0,0E0,0E0,0E0,0E0,0E0,0E0,0E0,0E0,0E0,0E0,0E0,0E0,0E0,0E0,0E0,0E0,0E0,0E0,0E0,0E0,0E0,0E0,0E0,0E0,0E0,0E0,0E0,0E0,0E0,0E0,0E0,0E0,0E0,0E0,0E0,0E0,0E0,0E0,0E0,0E0,0E0,0E0,0E0,0E0,0E0,0E0,0E0,0E0,0E0,0E0,0E0,0E0,0E0,0E0,0E0,0E0,0E0,0E0,0E0,0E0,0E0,0E0,0E0,0E0,0E0,0E0,0E0,0E0,0E0,0E0,0E0,0E0,0E0,0E0,0E0,0E0,0E0,0E0,0E0,0E0,0E0,0E0,0E0,0E0,0E0,0E0,0E0,0E0,0E0,0E0,0E0,0E0,0E0,0E0,0E0,0E0,0E0,0E0,0E0,0E0,0E0,0E0,0E0,0E0,0E0,0E0,0E0,0E0,0E0,0E0,0E0,0E0,0E0,0E0,0E0,0E0,0E0,0E0,0E0,0E0,0E0,0E0,0E0,0E0,0E0,0E0,0E0,0E0,0E0,0E0,0E0,0E0,0E0,0E0,0E0,0E0,0E0,0E0,0E0,0E0,0E0,0E0,0E0,0E0,0E0,0E0,0E0,0E0,0E0,0E0,0E0,0E0,0E0,0E0,0E0,0E0,0E0,0E0,0E0,0E0,0E0,0E0,0E0,0E0,0E0,0E0,0E0,0E0,0E0,0E0,0E0,0E0,0E0,0E0,0E0,0E0,0E0,0E0,0E0,0E0,0E0,0E0,0E0,0E0,0E0,0E0,0E0,0E0,0E0,0E0,0E0,0E0,0E0,0E0,0E0,0E0,0E0,0E0,0E0,0E0,0E0,0E0,0E0,0E0,0E0,0E0,0E0,0E0,0E0,0E0,0E0,0E0,0E0,0E0,0E0,0E0,0E0,0E0,0E0,0E0,0E0,0E0,0E0,0E0,0E0,0E0,0E0,0E0,0E0,0E0,0E0,0E0,0E0,0E0,0E0,0E0,0E0,0E0,0E0,0E0,0E0,0E0,0E0,0E0,0E0,0E0,0E0,0E0,0E0,0E0,0E0,0E0,0E0,0E0,0E0,0E0,0E0,0E0,0E0,0E0,0E0,0E0,0E0,0E0,0E0,0E0,0E0,0E0,0E0,0E0,0E0,0E0,0E0,0E0,0E0,0E0,0E0,0E0,0E0,0E0,0E0,0E0,0E0,0E0,0E0,0E0,0E0,0E0,0E0,0E0,0E0,0E0,0E0,0E0,0E0,0E0,0E0,0E0,0E0,0E0,0E0,0E0,0E0,0E0,0E0,0E0,0E0,0E0,0E0,0E0,0E0,0E0,0E0,0E0,0E0,0E0,0E0,0E0,0E0,0E0,0E0,0E0,0E0,0E0,0E0,0E0,0E0,0E0,0E0,0E0,0E0,0E0,0E0,0E0,0E0,0E0,0E0,0E0,0E0,0E0,0E0,0E0,0E0,0E0,0E0,0E0,0E0,0E0,0E0,0E0,0E0,0E0,0E0,0E0,0E0,0E0,0E0,0E0,0E0,0E0,0E0,0E0,0E0,0E0,0E0,0E0,0E0,0E0,0E0,0E0,0E0,0E0,0E0,0E0,0E0,0E0,0E0,0E0,0E0,0E0,0E0,0E0,0E0,0E0,0E0,0E0,0E0,0E0,0E0,0E0,0E0,0E0,0E0,0E0,0E0,0E0,0E0,0E0,0E0,0E0,0E0,0E0,0E0,0E0,0E0,0E0,0E0,0E0,0E0,0E0,0E0,0E0,0E0,0E0,0E0,0E0,0E0,0E0,0E0,0E0,0E0,0E0,0E0,0E0,0E0,0E0,0E0,0E0,0E0],"parents":[2147483647,0,0,1,1,2,2,3,3,4,4,5,5,6,6,7,7,8,8,9,9,10,10,11,11,12,12,13,13,14,14,15,15,16,16,17,17,18,18,19,19,20,20,21,21,22,22,23,23,24,24,25,25,26,26,27,27,28,28,29,29,30,30,32,32,33,33,34,34,35,35,36,36,37,37,38,38,39,39,40,40,41,41,42,42,43,43,44,44,45,45,46,46,47,47,48,48,49,49,50,50,51,51,52,52,53,53,54,54,55,55,56,56,57,57,58,58,59,59,60,60,61,61,62,62,63,63,65,65,66,66,67,67,68,68,70,70,71,71,72,72,73,73,74,74,75,75,76,76,77,77,78,78,79,79,80,80,81,81,82,82,83,83,84,84,85,85,86,86,87,87,88,88,89,89,90,90,91,91,92,92,93,93,94,94,95,95,96,96,97,97,98,98,99,99,100,100,101,101,102,102,103,103,104,104,105,105,106,106,107,107,108,108,109,109,110,110,111,111,112,112,113,113,114,114,115,115,116,116,117,117,118,118,119,119,120,120,121,121,122,122,123,123,124,124,125,125,126,126,127,127,129,129,130,130,131,131,132,132,133,133,135,135,136,136,137,137,138,138,139,139,140,140,141,141,142,142,143,143,144,144,147,147,148,148,149,149,150,150,151,151,152,152,153,153,154,154,155,155,156,156,157,157,158,158,159,159,160,160,161,161,162,162,164,164,165,165,166,166,167,167,168,168,170,170,171,171,172,172,174,174,175,175,176,176,177,177,178,178,180,180,182,182,185,185,186,186,187,187,188,188,189,189,190,190,191,191,192,192,194,194,195,195,196,196,197,197,198,198,199,199,200,200,201,201,202,202,203,203,204,204,205,205,206,206,207,207,208,208,210,210,211,211,212,212,213,213,214,214,215,215,216,216,217,217,218,218,219,219,220,220,221,221,222,222,223,223,224,224,225,225,226,226,227,227,228,228,229,229,230,230,231,231,232,232,233,233,235,235,236,236,237,237,238,238,239,239,240,240,241,241,242,242,243,243,244,244,247,247,249,249,250,250,254,254,255,255,256,256,257,257,258,258,260,260,261,261,262,262,264,264,267,267,268,268,270,270,273,273,274,274,275,275,276,276,277,277,278,278,279,279,280,280,282,282,284,284,286,286,287,287,288,288,289,289,290,290,291,291,292,292,293,293,294,294,295,295,296,296,297,297,298,298,299,299,300,300,302,302,303,303,304,304,305,305,307,307,308,308,309,309,310,310,311,311,312,312,313,313,315,315,316,316,318,318,321,321,322,322,324,324,325,325,326,326,327,327,328,328,329,329,330,330,331,331,332,332,333,333,334,334,335,335,336,336,337,337,338,338,339,339,340,340,341,341,342,342,343,343,344,344,345,345,347,347,348,348,349,349,351,351,352,352,353,353,354,354,355,355,356,356,357,357,358,358,359,359,361,361,362,362,363,363,364,364,365,365,366,366,367,367,368,368,369,369,370,370,371,371,373,373,374,374,377,377,378,378,379,379,380,380,381,381,383,383,384,384,385,385,386,386,387,387,389,389,391,391,395,395,396,396,397,397,398,398,399,399,400,400,402,402,404,404,405,405,406,406,407,407,408,408,409,409,410,410,411,411,412,412,413,413,414,414,415,415,416,416,418,418,419,419,420,420,421,421,422,422,423,423,424,424,425,425,427,427,428,428,429,429,431,431,432,432,433,433,434,434,435,435,436,436,438,438,439,439,441,441,442,442,443,443,444,444,445,445,446,446,447,447,448,448,449,449,450,450,451,451,452,452,453,453,454,454,456,456,457,457,464,464,465,465,466,466,468,468,469,469,470,470,471,471,472,472,473,473,476,476,477,477,478,478,479,479,480,480,482,482,483,483,484,484,486,486,487,487,489,489,491,491,492,492,493,493,494,494,495,495,496,496,497,497,498,498,500,500,501,501,502,502,504,504,505,505,506,506,509,509,510,510,511,511,514,514,515,515,516,516,517,517,518,518,519,519,520,520,521,521,522,522,523,523,524,524,525,525,526,526,527,527,528,528,531,531,532,532,534,534,535,535,536,536,537,537,538,538,539,539,540,540,541,541,542,542,543,543,544,544,547,547,548,548,549,549,550,550,551,551,552,552,553,553,554,554,555,555,556,556,557,557,560,560,561,561,562,562,567,567,571,571,573,573,574,574,575,575,576,576,577,577,578,578,579,579,580,580,581,581,582,582,583,583,584,584,585,585,587,587,588,588,589,589,590,590,591,591,593,593,594,594,595,595,596,596,597,597,599,599,600,600,601,601,602,602,604,604,605,605,606,606,607,607,608,608,609,609,610,610,612,612,613,613,614,614,615,615,616,616,617,617,619,619,620,620,621,621,622,622,623,623,624,624,625,625,626,626,627,627,628,628,629,629,630,630,631,631,633,633,634,634,635,635,637,637,638,638,639,639,640,640,642,642,643,643,645,645,646,646,647,647,648,648,649,649,651,651,652,652,653,653,654,654,655,655,657,657,658,658,659,659,660,660,661,661,662,662,663,663,664,664,666,666,667,667,668,668,669,669,670,670,672,672,673,673,674,674,678,678,679,679,680,680,682,682,684,684,687,687,691,691,692,692,693,693,694,694,697,697,699,699,700,700,702,702,703,703,704,704,708,708,709,709,710,710,712,712,713,713,714,714,715,715,716,716,717,717,718,718,721,721,722,722,725,725,726,726,727,727,729,729,730,730,731,731,732,732,735,735,736,736,737,737,738,738,739,739,740,740,742,742,744,744,746,746,749,749,750,750,751,751,752,752,753,753,754,754,755,755,756,756,757,757,758,758,759,759,760,760,763,763,764,764,765,765,766,766,767,767,768,768,769,769,770,770,771,771,772,772,773,773,774,774,775,775,776,776,777,777,778,778,779,779,780,780,782,782,783,783,784,784,785,785,786,786,787,787,788,788,792,792,793,793,794,794],"right_children":[2,4,6,8,10,12,14,16,18,20,22,24,26,28,30,32,34,36,38,40,42,44,46,48,50,52,54,56,58,60,62,-1,64,66,68,70,72,74,76,78,80,82,84,86,88,90,92,94,96,98,100,102,104,106,108,110,112,114,116,118,120,122,124,126,-1,128,130,132,134,-1,136,138,140,142,144,146,148,150,152,154,156,158,160,162,164,166,168,170,172,174,176,178,180,182,184,186,188,190,192,194,196,198,200,202,204,206,208,210,212,214,216,218,220,222,224,226,228,230,232,234,236,238,240,242,244,246,248,250,-1,252,254,256,258,260,-1,262,264,266,268,270,272,274,276,278,280,-1,-1,282,284,286,288,290,292,294,296,298,300,302,304,306,308,310,312,-1,314,316,318,320,322,-1,324,326,328,-1,330,332,334,336,338,-1,340,-1,342,-1,-1,344,346,348,350,352,354,356,358,-1,360,362,364,366,368,370,372,374,376,378,380,382,384,386,388,-1,390,392,394,396,398,400,402,404,406,408,410,412,414,416,418,420,422,424,426,428,430,432,434,436,-1,438,440,442,444,446,448,450,452,454,456,-1,-1,458,-1,460,462,-1,-1,-1,464,466,468,470,472,-1,474,476,478,-1,480,-1,-1,482,484,-1,486,-1,-1,488,490,492,494,496,498,500,502,-1,504,-1,506,-1,508,510,512,514,516,518,520,522,524,526,528,530,532,534,536,-1,538,540,542,544,-1,546,548,550,552,554,556,558,-1,560,562,-1,564,-1,-1,566,568,-1,570,572,574,576,578,580,582,584,586,588,590,592,594,596,598,600,602,604,606,608,610,612,-1,614,616,618,-1,620,622,624,626,628,630,632,634,636,-1,638,640,642,644,646,648,650,652,654,656,658,-1,660,662,-1,-1,664,666,668,670,672,-1,674,676,678,680,682,-1,684,-1,686,-1,-1,-1,688,690,692,694,696,698,-1,700,-1,702,704,706,708,710,712,714,716,718,720,722,724,726,-1,728,730,732,734,736,738,740,742,-1,744,746,748,-1,750,752,754,756,758,760,-1,762,764,-1,766,768,770,772,774,776,778,780,782,784,786,788,790,792,-1,794,796,-1,-1,-1,-1,-1,-1,798,800,802,-1,804,806,808,810,812,814,-1,-1,816,818,820,822,824,-1,826,828,830,-1,832,834,-1,836,-1,838,840,842,844,846,848,850,852,-1,854,856,858,-1,860,862,864,-1,-1,866,868,870,-1,-1,872,874,876,878,880,882,884,886,888,890,892,894,896,898,900,-1,-1,902,904,-1,906,908,910,912,914,916,918,920,922,924,926,-1,-1,928,930,932,934,936,938,940,942,944,946,948,-1,-1,950,952,954,-1,-1,-1,-1,956,-1,-1,-1,958,-1,960,962,964,966,968,970,972,974,976,978,980,982,984,-1,986,988,990,992,994,-1,996,998,1000,1002,1004,-1,1006,1008,1010,1012,-1,1014,1016,1018,1020,1022,1024,1026,-1,1028,1030,1032,1034,1036,1038,-1,1040,1042,1044,1046,1048,1050,1052,1054,1056,1058,1060,1062,1064,-1,1066,1068,1070,-1,1072,1074,1076,1078,-1,1080,1082,-1,1084,1086,1088,1090,1092,-1,1094,1096,1098,1100,1102,-1,1104,1106,1108,1110,1112,1114,1116,1118,-1,1120,1122,1124,1126,1128,-1,1130,1132,1134,-1,-1,-1,1136,1138,1140,-1,1142,-1,1144,-1,-1,1146,-1,-1,-1,1148,1150,1152,1154,-1,-1,1156,-1,1158,1160,-1,1162,1164,1166,-1,-1,-1,1168,1170,1172,-1,1174,1176,1178,1180,1182,1184,1186,-1,-1,1188,1190,-1,-1,1192,1194,1196,-1,1198,1200,1202,1204,-1,-1,1206,1208,1210,1212,1214,1216,-1,1218,-1,1220,-1,1222,-1,-1,1224,1226,1228,1230,1232,1234,1236,1238,1240,1242,1244,1246,-1,-1,1248,1250,1252,1254,1256,1258,1260,1262,1264,1266,1268,1270,1272,1274,1276,1278,1280,1282,-1,1284,1286,1288,1290,1292,1294,1296,-1,-1,-1,1298,1300,1302,-1,-1,-1,-1,-1,-1,-1,-1,-1,-1,-1,-1,-1,-1,-1,-1,-1,-1,-1,-1,-1,-1,-1,-1,-1,-1,-1,-1,-1,-1,-1,-1,-1,-1,-1,-1,-1,-1,-1,-1,-1,-1,-1,-1,-1,-1,-1,-1,-1,-1,-1,-1,-1,-1,-1,-1,-1,-1,-1,-1,-1,-1,-1,-1,-1,-1,-1,-1,-1,-1,-1,-1,-1,-1,-1,-1,-1,-1,-1,-1,-1,-1,-1,-1,-1,-1,-1,-1,-1,-1,-1,-1,-1,-1,-1,-1,-1,-1,-1,-1,-1,-1,-1,-1,-1,-1,-1,-1,-1,-1,-1,-1,-1,-1,-1,-1,-1,-1,-1,-1,-1,-1,-1,-1,-1,-1,-1,-1,-1,-1,-1,-1,-1,-1,-1,-1,-1,-1,-1,-1,-1,-1,-1,-1,-1,-1,-1,-1,-1,-1,-1,-1,-1,-1,-1,-1,-1,-1,-1,-1,-1,-1,-1,-1,-1,-1,-1,-1,-1,-1,-1,-1,-1,-1,-1,-1,-1,-1,-1,-1,-1,-1,-1,-1,-1,-1,-1,-1,-1,-1,-1,-1,-1,-1,-1,-1,-1,-1,-1,-1,-1,-1,-1,-1,-1,-1,-1,-1,-1,-1,-1,-1,-1,-1,-1,-1,-1,-1,-1,-1,-1,-1,-1,-1,-1,-1,-1,-1,-1,-1,-1,-1,-1,-1,-1,-1,-1,-1,-1,-1,-1,-1,-1,-1,-1,-1,-1,-1,-1,-1,-1,-1,-1,-1,-1,-1,-1,-1,-1,-1,-1,-1,-1,-1,-1,-1,-1,-1,-1,-1,-1,-1,-1,-1,-1,-1,-1,-1,-1,-1,-1,-1,-1,-1,-1,-1,-1,-1,-1,-1,-1,-1,-1,-1,-1,-1,-1,-1,-1,-1,-1,-1,-1,-1,-1,-1,-1,-1,-1,-1,-1,-1,-1,-1,-1,-1,-1,-1,-1,-1,-1,-1,-1,-1,-1,-1,-1,-1,-1,-1,-1,-1,-1,-1,-1,-1,-1,-1,-1,-1,-1,-1,-1,-1,-1,-1,-1,-1,-1,-1,-1,-1,-1,-1,-1,-1,-1,-1,-1,-1,-1,-1,-1,-1,-1,-1,-1,-1,-1,-1,-1,-1,-1,-1,-1,-1,-1,-1,-1,-1,-1,-1,-1,-1,-1,-1,-1,-1,-1,-1,-1,-1,-1,-1,-1,-1,-1,-1,-1,-1,-1,-1,-1,-1,-1,-1,-1,-1,-1,-1,-1,-1,-1,-1,-1,-1,-1,-1,-1,-1,-1,-1,-1,-1,-1,-1,-1,-1,-1,-1,-1,-1,-1,-1,-1,-1,-1,-1,-1,-1,-1,-1,-1,-1,-1,-1,-1,-1,-1,-1,-1,-1,-1,-1,-1,-1,-1,-1,-1,-1,-1,-1,-1,-1,-1,-1,-1,-1,-1,-1,-1,-1,-1,-1,-1,-1,-1,-1,-1,-1,-1,-1,-1,-1,-1,-1,-1,-1,-1,-1,-1,-1,-1,-1,-1,-1,-1,-1,-1,-1,-1,-1,-1,-1,-1,-1,-1,-1],"split_conditions":[8.474845E1,3.787038E1,1.2612262E2,2.7526915E1,1.6183096E2,2.5332724E2,1.9748297E2,4.0938888E0,8.23682E1,2.4606288E2,6.6512184E1,3.5875713E1,3.1145483E2,8.559708E1,1.199062E2,1.2928993E0,2.115347E1,1.12201004E2,1.0385432E2,2.770356E1,2.2885968E2,1.3828522E2,2.1103752E2,1.7716977E2,1.9748297E2,1.06487656E2,1.6444841E2,1.0718514E2,8.854305E1,2.8463098E2,3.0529626E2,-4.167981E-1,1.3615724E1,6.4904666E0,3.151698E1,3.9702927E1,4.0523594E1,3.2079098E1,3.430501E1,9.243612E1,7.83422E1,4.7545902E1,2.2166959E2,4.8715572E1,8.56932E1,6.1595043E1,3.9976425E2,9.8337746E1,3.0671164E1,8.483991E1,1.3780852E2,4.361121E2,7.948428E1,1.7267116E2,1.1148326E3,2.940072E2,1.653447E2,1.5921576E2,9.425215E1,8.309943E1,4.925207E2,6.089066E2,1.4865565E3,1.2781861E1,-3.9544648E-1,2.2168879E1,2.5481195E1,2.0656199E1,7.121819E1,-3.476813E-1,6.441501E1,3.430501E1,1.1268381E2,4.4182667E1,8.683949E1,6.9729166E0,4.6452885E1,7.121819E1,2.5052725E1,8.56932E1,7.948428E1,1.3207535E2,9.136636E1,6.268629E2,4.0483167E2,2.0144188E2,2.1300694E1,2.6831684E1,3.2273996E2,1.08563644E2,1.907316E2,2.3359926E2,2.1953513E2,1.4386621E2,5.9152843E1,9.274224E1,1.1998628E2,1.4020921E2,8.43478E1,1.08479996E2,2.8479532E2,2.9086487E2,1.0412269E3,2.8932642E2,1.7267116E2,3.6320312E1,1.2427526E2,1.13959724E2,9.924765E2,1.2606766E2,1.5616786E2,4.6869915E1,1.20670296E2,8.003287E1,4.2173087E2,2.2012411E2,2.4229103E2,2.1188075E2,1.8233391E2,3.5041928E2,2.0106557E2,1.6818243E2,3.793413E2,3.4879437E2,1.5833507E3,2.3560069E0,3.0593653E1,1.4413986E1,-3.695859E-1,8.432049E0,3.4505363E1,3.729027E1,6.1969776E1,3.0980885E1,-3.8187128E-1,6.5134415E1,1.2253941E1,7.631407E1,1.999691E1,1.2855939E2,9.268182E1,1.7235142E1,3.886804E1,4.9243195E1,3.4763905E1,-3.3907298E-2,6.591905E-2,1.415618E1,3.2322395E1,4.246079E1,2.3450277E1,4.859863E1,1.13073814E2,1.2391681E2,7.176448E1,4.6284595E1,1.9548404E2,8.6784386E1,1.4708559E2,2.895311E2,5.8949253E1,1.580942E2,3.6024957E2,-2.8040043E-1,4.7049875E2,5.8540596E1,1.6851233E1,1.4648776E2,2.8111788E1,-3.2728383E-1,2.2048315E1,5.125814E1,7.806364E2,3.378419E-1,1.942805E2,7.086535E1,1.7464343E2,7.606618E1,8.307955E1,3.311299E-1,2.4790092E2,-1.5291679E-1,2.9404665E1,-2.593616E-1,6.591905E-2,2.2634822E2,6.3433372E1,2.0845879E2,9.582288E1,1.2743804E2,7.990236E1,5.0559532E1,9.8337746E1,-3.322214E-1,1.2245993E2,1.0195748E2,2.131704E2,9.2845085E1,1.0096773E2,9.749311E1,2.0800516E2,1.15300865E2,1.1199279E2,7.705849E1,5.2586163E2,3.2334702E2,1.6434666E2,1.09824615E2,4.505445E2,-2.3355998E-1,4.0834494E2,5.251258E2,4.492836E2,3.142361E1,7.193192E1,8.189095E1,3.4177E1,3.2335537E1,1.7135432E2,6.6448616E1,2.228249E2,2.9086487E2,6.519795E1,8.9967384E1,7.5191666E1,1.653447E2,1.0780278E2,1.0159413E2,4.5899078E2,2.574542E2,2.3046692E2,2.1392189E2,2.38396E2,1.3702446E2,-3.322214E-1,1.1490681E2,3.5702914E2,3.5702914E2,1.0623153E2,2.1267398E2,5.08349E2,4.4250385E2,5.751041E2,1.2955914E3,3.4107416E2,-2.031642E-1,1.6574538E-1,2.6381423E0,-3.3907298E-2,1.2781861E1,1.3209774E1,-2.2206633E-1,-3.3907298E-2,4.2064673E-1,2.5872139E1,9.018924E0,1.0364063E0,2.3410885E1,1.0808741E2,-3.5355732E-1,1.5409593E2,3.8563957E1,2.5052725E1,-2.9169846E-1,3.5875713E1,2.6198038E-1,-2.0549636E-1,1.954959E1,4.1675312E1,-2.3627193E-1,1.0367711E2,3.9338505E-1,-1.3373363E-1,9.9954025E1,2.2202206E1,6.9191795E1,1.8137049E1,5.9841022E1,1.6183096E2,4.3301502E1,1.9385202E2,-3.561565E-1,4.807349E1,-3.7383074E-1,2.5641254E2,-3.7144867E-1,4.0878662E1,8.683949E1,6.6141716E1,1.1546215E1,4.298198E1,5.0153393E1,1.9810694E1,1.5386757E2,4.9674862E1,1.2487695E2,8.189095E1,3.3686268E1,6.283072E1,1.8995972E1,1.4181856E2,3.5081178E-1,1.4419902E2,3.0671164E1,8.1299445E2,2.6831684E1,-3.426807E-1,5.2832066E1,4.9198114E2,1.511187E2,5.916538E2,1.0177962E2,1.1148326E3,9.9343994E1,4.692897E-1,1.4939062E1,4.4474514E1,-3.3907298E-2,4.1590054E1,1.0714968E-1,-3.217659E-1,6.519795E1,6.1376144E1,3.311299E-1,7.859039E1,2.829753E2,1.7468654E2,2.6082935E2,3.4606396E2,9.785131E1,1.2743804E2,1.08479996E2,1.6673168E3,7.193192E1,1.6003209E2,3.89029E2,2.4606288E2,2.8335312E2,2.7400986E2,7.425011E1,7.9555E1,1.5786598E2,9.652757E1,1.06487656E2,6.3433372E1,1.8345587E2,-2.52291E-1,6.76926E1,8.2546074E1,2.4286177E2,4.1261548E-1,2.2151482E2,8.576054E1,7.608044E1,1.64889E2,1.1707651E2,1.1349419E2,2.684757E2,2.3881517E2,1.4129742E2,5.9191763E-2,2.5424272E2,8.080383E2,4.6492416E2,6.3381573E2,9.7483025E1,7.948428E1,3.886804E1,1.0254622E3,5.060473E2,1.0564646E2,4.7631223E2,1.9700985E-1,1.0895478E2,6.3433372E1,-2.251155E-2,-3.6485726E-1,4.224697E1,8.189095E1,7.806364E2,5.47687E2,2.5714357E1,-3.435972E-1,1.1268381E2,6.116554E1,3.994132E2,2.574542E2,3.750557E2,-3.085253E-1,8.3389105E2,-3.3907298E-2,4.943051E2,-3.085752E-1,1.9700985E-1,-1.6243082E-1,1.5360018E1,1.2703483E2,1.6304256E2,1.835143E2,1.8167876E2,1.790766E2,-3.6079827E-1,1.1600434E2,-1.3373363E-1,1.7630896E2,8.12803E1,9.564996E1,1.4609665E2,1.1039049E2,1.2941013E2,1.903863E2,1.311091E2,9.1059235E1,1.7669286E2,1.5256978E2,1.8919228E2,2.1600517E2,-3.492193E-1,2.4229103E2,2.8932642E2,3.346408E2,1.736896E2,1.9197612E2,1.5921576E2,1.3094202E2,2.599448E2,-3.085752E-1,9.065756E1,4.8023886E2,8.897583E1,-2.8040043E-1,1.6434666E2,2.0254018E2,2.0784578E2,2.3250908E2,1.0069365E2,2.7811157E2,-3.7294835E-1,6.6141716E1,3.3750772E2,-3.5884362E-1,1.0278602E2,3.7677777E2,1.6878873E2,3.276603E2,1.7424342E2,2.0106557E2,3.3216006E2,1.4602552E3,1.3096014E2,4.1303946E2,2.0543878E2,3.6024957E2,2.8037347E2,5.4009625E2,3.9533454E-1,1.2369435E3,1.7158625E1,-3.8416323E-1,-3.3907298E-2,2.8687E-1,-2.8040043E-1,6.591905E-2,3.2218242E-1,1.2631736E1,1.3777476E1,5.2474148E1,-3.3907298E-2,8.1299445E2,2.2954044E1,4.8354076E1,3.2979443E1,3.2403175E1,2.4522263E1,-2.6887104E-1,4.0653664E-1,2.9419739E1,1.9225296E1,5.6732067E1,7.747861E1,3.487792E1,-1.6243082E-1,2.2202206E1,5.2034046E1,7.193192E1,3.5081178E-1,3.277743E1,9.0400986E1,5.4531794E-2,9.149435E1,-1.3059229E-1,2.072054E1,1.5691059E1,1.3780852E2,1.1387419E2,1.2312482E2,4.1378994E1,5.2219376E1,6.036643E1,-3.085253E-1,1.3496458E2,1.5259058E2,6.5632645E1,-1.8591818E-1,1.0726736E1,1.2669583E2,4.6522382E2,1.0714968E-1,-2.3355998E-1,4.9005817E1,4.9461544E1,1.3641527E2,-2.3355998E-1,-3.585633E-1,1.2186439E2,5.8949253E1,8.384559E1,9.4622345E1,9.702561E1,4.4182667E1,2.5491198E1,1.3777476E1,3.2335537E1,1.2403655E2,1.21391785E2,5.5369583E1,4.8234497E1,1.19990776E2,1.2186439E2,-1.6243082E-1,4.1326615E-1,3.2335537E1,2.0254018E2,-2.2206633E-1,1.1039049E2,1.2274573E2,2.875019E1,1.3654913E2,1.4751584E2,3.2946323E2,1.0301523E2,4.4182667E1,6.24305E2,3.1543735E2,3.5022205E1,-2.6887104E-1,9.4119914E-2,1.5808618E2,9.396404E1,4.4182667E1,8.384559E1,2.2775165E2,6.399368E1,3.7825027E2,2.7283466E2,4.8794473E2,4.300765E2,9.924765E2,4.1558126E-1,5.9191763E-2,1.8467084E2,6.76926E1,1.3015639E2,-3.8185346E-1,-1.0421487E-1,3.09774E-1,-3.3907298E-2,4.392363E1,2.8687E-1,-2.52291E-1,2.2259839E-1,7.048216E2,-3.3907298E-2,1.7605344E2,5.975144E1,8.718158E1,3.9976425E2,5.042927E1,1.783713E2,4.1590054E1,1.7817354E2,1.8823717E2,1.6790202E2,1.0489155E2,1.8089468E2,2.473784E2,-3.1555894E-1,6.3160885E1,1.2057905E2,2.4129686E2,1.9783054E2,9.7483025E1,5.9191763E-2,1.790766E2,2.041362E2,3.8245328E2,2.2885968E2,1.3073952E2,-3.6099255E-1,6.24305E2,1.6062674E2,2.1890868E2,2.769442E2,3.7214136E-1,2.2202206E1,1.6450798E2,5.488484E1,6.8926834E1,2.1941655E2,8.398783E1,1.1199279E2,-1.6243082E-1,2.4132918E2,1.0275038E2,1.7700285E2,1.1895963E2,2.4653595E2,3.5022205E1,-7.257066E-2,1.0275038E2,1.0822238E2,7.279243E1,1.4004028E2,1.8089468E2,8.718158E1,5.1973316E1,2.3881517E2,1.6986794E2,2.1890868E2,9.101021E1,8.372167E1,2.2849696E2,4.391465E-1,1.291072E2,1.3828522E2,1.2877036E2,4.5667624E-1,1.9385202E2,1.4602552E3,9.0340686E2,2.228249E2,1.0714968E-1,6.2162445E2,3.2827026E2,3.311299E-1,2.675389E1,2.6962933E2,2.7246634E2,2.4279468E2,2.8985538E1,3.0430174E-1,2.72023E2,3.0784058E2,1.1490681E2,1.17278595E2,2.6686142E2,-1.3373363E-1,9.0062024E2,9.4464325E2,3.487792E1,1.4763884E2,1.20746445E2,7.2473724E1,2.7246634E2,8.9967384E1,-7.257066E-2,1.0802552E2,1.7396826E2,2.9239383E2,4.8179257E2,1.1052684E3,1.9700985E-1,5.1882446E1,6.810616E1,1.5019244E2,-3.6834204E-1,1.0714968E-1,-3.6169276E-1,9.749311E1,9.220258E1,1.0564646E2,-2.1776962E-1,4.3445415E1,5.9191763E-2,6.85403E2,-2.3355998E-1,1.9700985E-1,2.7246634E2,-3.322214E-1,1.0714968E-1,4.637626E-1,7.25834E1,1.835143E2,2.5200899E2,2.6118E2,-3.3402792E-1,-7.257066E-2,8.483991E1,-1.7740698E-1,6.8585236E1,1.7083226E2,-2.251155E-2,2.2395132E2,2.401398E2,2.0519002E2,6.591905E-2,4.4192725E-1,-3.322214E-1,2.6544208E2,4.770627E1,1.7564983E2,3.0430174E-1,1.2733052E2,5.10867E1,2.711512E2,6.726429E1,5.6263786E1,3.512219E2,2.4279468E2,2.8687E-1,-1.5291679E-1,1.580942E2,8.105424E1,2.655717E-1,-3.1326386E-1,3.4432632E2,3.994132E2,1.9197612E2,1.6574538E-1,5.8006477E1,1.0301523E2,1.1977103E2,1.04597984E2,1.4089508E-1,-3.4434298E-1,9.357433E1,5.2519844E1,1.09824615E2,2.0784578E2,7.53129E1,1.8725322E2,-1.4617733E-2,2.6667844E2,-3.3907298E-2,1.85428E2,1.0714968E-1,2.0044392E2,2.8687E-1,6.591905E-2,2.599448E2,1.718201E2,1.6479958E2,1.183063E2,9.420024E1,2.4606288E2,4.8023886E2,1.3096014E2,4.4297598E2,1.1490681E2,1.4500432E2,1.4751584E2,-3.3907298E-2,-2.5503185E-1,2.347916E2,2.8335312E2,3.0784058E2,2.3046692E2,1.5346687E2,1.666625E2,4.3545987E2,1.7008403E2,4.399406E2,1.8703215E2,2.9239383E2,5.196147E2,4.300765E2,4.5899078E2,3.5186096E2,6.055232E2,6.628122E2,9.492696E2,-8.376726E-2,9.77878E2,3.2127087E2,1.5283181E3,1.4602552E3,6.399867E2,6.3381573E2,1.472204E3,-3.3907298E-2,4.1261548E-1,3.311299E-1,2.5402385E3,9.0340686E2,2.684757E2,-2.251155E-2,-2.8040043E-1,-2.2529873E-1,2.1324076E-1,-3.72359E-1,-2.7911174E-1,4.037802E-2,-2.3687805E-1,-3.7861288E-1,-7.257066E-2,-2.251155E-2,3.5622844E-1,-2.9121584E-1,-8.826619E-3,-3.258223E-1,-1.5057577E-1,-3.5516697E-1,-3.0314508E-1,-8.721024E-2,2.107643E-1,-1.6243082E-1,2.0781115E-1,-3.3907298E-2,-3.217659E-1,6.591905E-2,3.777557E-1,-8.3603095E-3,1.5097971E-1,-3.0048805E-1,-3.3907298E-2,-2.251155E-2,1.9700985E-1,-1.9456963E-1,-3.4046307E-1,-2.2802244E-1,1.3573696E-2,8.480855E-2,-2.52291E-1,-3.3907298E-2,-2.6257837E-1,-1.3373363E-1,2.6007745E-1,-2.2293466E-1,1.6574538E-1,-2.9840353E-1,-3.4651583E-1,1.9700985E-1,-1.6243082E-1,1.921585E-2,-2.72746E-1,-1.666955E-1,1.7449501E-1,-3.449884E-1,6.591905E-2,7.7822626E-2,-1.6243082E-1,3.5880947E-1,-3.3907298E-2,1.2076809E-1,-1.5151796E-1,-1.9401726E-1,-2.6850942E-1,-7.938275E-2,2.655717E-1,-1.6243082E-1,1.4624478E-1,-2.298079E-1,-3.305633E-1,-2.676215E-1,1.2368133E-1,-5.268134E-2,2.517491E-1,-2.1290283E-1,2.1324076E-1,3.4662262E-1,1.1105285E-1,3.311299E-1,-4.2752802E-2,-2.995129E-1,-7.165543E-2,-1.7886142E-1,2.655717E-1,1.9700985E-1,-2.7821591E-1,-1.2405873E-1,1.6361086E-1,2.4790755E-1,-5.816679E-2,-2.15384E-2,-2.1097396E-1,-1.3059229E-1,4.027523E-1,-3.085253E-1,2.8687E-1,-2.8661698E-1,1.5015817E-1,-9.5562376E-2,3.3131254E-1,-1.18370585E-1,8.4628664E-2,-2.933142E-1,-6.419818E-2,3.72968E-1,-4.895926E-2,1.6944878E-1,-5.5914164E-2,1.4673167E-1,-2.4876532E-1,9.9202015E-2,-3.217659E-1,3.2983416E-1,4.3985334E-1,-1.152776E-1,4.0497136E-1,-8.826619E-3,3.8715726E-1,5.9004135E-2,-3.5355732E-1,-1.3373363E-1,3.311299E-1,-2.5189573E-1,-3.6948484E-1,-3.0484876E-1,2.7575577E-2,-1.8365489E-1,-3.829749E-1,-2.1507046E-1,-3.402289E-1,-2.52291E-1,-4.3623645E-2,2.8687E-1,6.591905E-2,2.5242494E-2,3.2745337E-1,-2.676215E-1,6.591905E-2,-2.676215E-1,2.2180818E-1,3.0430174E-1,-2.7578604E-1,4.155512E-1,-5.5688217E-2,-2.4858555E-1,3.2218242E-1,-9.8424435E-2,3.5081178E-1,2.622966E-2,-3.0750567E-1,1.8384783E-1,-2.2206633E-1,-2.3851714E-1,1.658084E-1,3.017264E-1,-1.1397946E-1,-2.5610608E-1,-1.286665E-1,5.9191763E-2,-2.2963335E-1,3.0589472E-3,-1.9293654E-1,2.0592455E-2,-2.52291E-1,-3.8538274E-1,-3.3741212E-1,-1.1442851E-1,-2.80068E-1,-8.3721615E-2,-3.3888105E-1,1.6574538E-1,-2.0665284E-1,2.2226453E-1,-3.3907298E-2,-1.7740698E-1,-3.81259E-1,-2.3229036E-1,9.4119914E-2,-1.3993141E-1,2.3093233E-1,-2.4183095E-1,-8.214834E-2,-2.0255789E-1,1.0714968E-1,1.3546538E-1,-1.3993141E-1,-2.4561827E-1,7.4899495E-2,-5.463423E-2,-2.1561924E-1,4.2148978E-2,1.8244687E-1,-1.5796944E-1,5.895374E-2,1.14860445E-1,-1.2909995E-1,-1.3218437E-1,-3.147591E-1,1.20175794E-1,-1.01074874E-1,6.591905E-2,-2.9126856E-1,-1.7515008E-1,1.6506557E-1,-3.268475E-1,-1.9271146E-1,-3.4668726E-1,-1.4617733E-2,-1.7365667E-1,-3.2862246E-1,-1.7028195E-1,1.0714968E-1,-8.987595E-4,-3.114266E-1,1.7624749E-1,-9.438461E-2,-3.3907298E-2,-3.4716424E-1,5.9191763E-2,-1.8622676E-1,3.5081178E-1,-1.1660211E-1,3.3760923E-1,5.4531794E-2,-3.3907298E-2,1.9700985E-1,-9.147502E-2,1.165245E-1,3.2313037E-1,-9.5562376E-2,-2.6135802E-1,2.4407418E-2,-2.159151E-1,1.0234808E-2,3.2942167E-1,9.4119914E-2,-2.470409E-2,2.7151957E-1,2.5094873E-1,-2.676215E-1,-1.2951672E-1,-9.240815E-3,2.6569825E-1,-1.2654917E-1,3.0430174E-1,6.591905E-2,2.5023124E-1,3.6482924E-1,-4.5200873E-2,2.6944306E-1,-6.2016316E-2,2.7136445E-1,3.7324244E-1,1.885392E-1,1.6574538E-1,-2.8483465E-1,6.1947342E-2,-3.1326386E-1,2.776915E-1,1.0791547E-1,-3.959968E-2,2.9487848E-1,1.9013463E-1,-4.0746797E-2,3.3991745E-1,-3.217659E-1,-2.52291E-1,1.4109667E-1,-3.585633E-1,-1.3059229E-1,2.1109538E-1,-9.344304E-2,3.287635E-1,-1.6243082E-1,1.0725649E-2,2.4191701E-1,3.4107572E-1,-2.3355998E-1,-3.0100664E-1,-6.6578545E-2,3.1251326E-1,-2.1661555E-2,7.0385225E-2,3.292348E-1,-3.1744817E-1,1.5797323E-1,1.9283085E-1,4.520192E-1,1.13154E-1,-1.8591818E-1,-1.3373363E-1,9.4119914E-2,-1.9346526E-1,-2.875243E-1,-1.4928223E-1,-3.410176E-1,-4.1465517E-2,-1.3810055E-1,-2.3355998E-1,6.591905E-2,-3.406846E-1,-1.5573034E-1,-3.9768958E-1,-1.0421487E-1,-2.3627193E-1,1.4089508E-1,2.8687E-1,-3.3907298E-2,1.4902467E-1,3.9881432E-1,-1.1472092E-1,2.6198038E-1,-5.816679E-2,-3.1757763E-1,-1.3373363E-1,1.6902398E-1,-2.7544263E-1,-9.931E-2,2.9087207E-1,-6.686263E-2,-1.8628639E-1,-3.2165423E-2,2.624775E-1,4.6213042E-2,-2.8159794E-1,6.3823745E-2,3.7385973E-1,1.7289512E-2,-1.1774583E-1,2.4888277E-2,-8.032985E-2,-2.5958073E-1,-1.3059229E-1,1.5946849E-1,3.2080024E-1,9.376486E-2,-3.114266E-1,1.0714968E-1,-3.085253E-1,6.591905E-2,3.8159567E-1,-6.8766356E-2,-1.7630388E-1,-3.1300637E-1,-2.2206633E-1,2.655717E-1,-1.663123E-1,-3.2796198E-1,-3.3907298E-2,1.9283085E-1,3.777557E-1,6.591905E-2,3.4167296E-1,6.591905E-2,5.063557E-2,-2.7258778E-1,7.4333474E-2,-2.0778029E-1,3.982908E-1,1.5216073E-1,8.834167E-2,-1.534863E-1,-3.3907298E-2,3.777557E-1,8.248576E-2,3.9920866E-1,-2.289038E-1,1.3803737E-1,1.7289512E-2,3.932021E-1,3.1883213E-1,-1.0134572E-1,3.3144352E-1,-2.8040043E-1,2.4392805E-1,-2.3627193E-1,1.9806528E-1,-8.684576E-3,-3.3666566E-1,1.7099258E-1,-2.881573E-1,2.8687E-1,3.3788988E-1,1.4709811E-1,1.7624749E-1,-2.2154066E-1,3.185796E-1,4.442224E-1,3.214226E-1,1.8262056E-1,1.9447972E-1,-9.961004E-2,3.0389673E-1,-3.1781275E-2,3.856319E-1,4.6748477E-1,-1.6243082E-1,2.8309208E-1,2.1404305E-1,4.2397428E-1,1.23619914E-1,-2.676215E-1,-1.9927372E-1,6.591905E-2,4.5074686E-1,6.591905E-2,-1.3059229E-1,3.5429624E-1,2.37164E-1,3.5218596E-1,-9.0118065E-2,2.0689952E-1,3.603979E-1,-8.826619E-3,2.2259839E-1,-2.1488968E-1,4.227559E-1,2.3889512E-1,3.0571538E-1,-9.5562376E-2,4.313122E-1,3.837271E-1,-1.6937673E-1,3.7362415E-1,5.4531794E-2,4.4789007E-1,-7.257066E-2,-3.159032E-1,-2.773249E-1,-1.4617733E-2,1.7289512E-2,-3.7668124E-1,-1.6243082E-1,2.3093233E-1,2.3888983E-1,-5.729165E-2,1.3647984E-1,-7.383867E-2,-7.257066E-2,3.8380942E-1,3.7772648E-2,2.9688337E-1,-7.165543E-2,3.5065633E-1,1.1105285E-1,-1.9424665E-1,1.6574538E-1,-1.3373363E-1,-3.085253E-1,-4.3623645E-2,-1.3373363E-1,-3.3907298E-2,3.4455398E-1,4.476107E-2,-1.0169957E-1,2.4641472E-1,-2.840025E-1,-5.5688217E-2,1.7509677E-1,-9.042579E-2,3.4789172E-1,1.851532E-1,-3.3625036E-2,1.9745068E-1,-7.7489115E-2,-3.387991E-1,3.12544E-1,1.01634346E-1,-1.7784244E-1,1.6134036E-1,4.2818597E-1,3.305297E-1,9.629079E-3,3.1340733E-1,1.5820898E-1,-1.2852174E-1,1.7202862E-1,8.982099E-3,2.4454987E-1,1.099154E-1,3.0686367E-1,9.473462E-2,4.257233E-1,5.2797124E-2,3.8499567E-1,1.4238681E-1,-5.729165E-2,4.2896497E-1,3.3091847E-2,3.7126145E-1,4.4583276E-1,3.2090324E-1,-1.4567938E-1,1.5242036E-1,3.2561275E-1,2.2340184E-1,-3.441505E-1,2.3241588E-1,4.3659967E-1,3.0426848E-1,4.020159E-1,-1.3148369E-1,4.1588223E-1,-8.8397056E-2,-1.7065732E-1,-3.8150704E-1,1.6574538E-1,-2.0549636E-1,-1.3441461E-2,2.345479E-1],"split_indices":[3,1,3,1,7,7,5,0,5,6,3,0,7,4,1,0,4,7,5,0,2,5,7,7,5,3,0,2,1,5,0,0,5,0,0,7,0,1,4,5,1,3,0,1,6,4,4,3,0,2,6,4,4,5,6,7,5,5,4,1,7,6,7,4,0,5,7,3,5,0,5,4,4,7,5,0,7,5,0,6,4,5,4,6,4,7,0,0,2,6,7,7,5,7,4,2,3,6,4,4,0,7,6,7,5,0,3,1,5,6,3,0,2,0,7,6,4,3,4,2,3,2,3,0,3,0,4,4,0,0,7,7,7,3,0,6,2,5,2,7,0,0,2,2,2,0,0,0,3,4,0,7,5,5,3,6,5,4,4,5,1,4,2,0,4,4,0,6,0,0,2,3,5,0,7,3,6,3,3,0,7,0,0,0,0,7,4,7,2,5,2,0,3,0,3,3,7,3,5,3,0,3,5,1,4,7,4,0,7,0,2,5,1,1,4,4,1,0,3,4,7,7,2,4,2,5,1,1,7,5,5,6,5,3,0,1,5,5,0,0,1,5,4,5,0,0,0,3,0,4,3,0,0,0,6,3,1,2,7,0,4,4,0,0,0,0,0,6,2,0,4,0,0,5,0,6,3,3,7,4,6,0,4,0,4,0,1,5,2,3,3,4,3,7,3,7,4,0,4,3,1,0,4,0,6,0,0,3,6,7,6,7,6,7,0,0,2,0,1,0,0,2,2,0,6,7,7,1,1,5,5,4,6,4,1,4,6,4,7,3,3,7,3,3,4,7,0,4,4,7,0,7,1,4,6,2,3,2,7,4,0,0,1,4,4,6,4,2,6,4,3,4,0,5,4,0,0,0,4,5,4,1,0,4,0,7,5,7,0,6,0,4,0,0,0,1,3,6,6,5,6,0,5,0,6,4,1,3,1,2,5,5,2,4,5,6,6,0,4,7,7,5,5,5,1,7,0,4,7,0,0,4,5,4,4,1,6,0,2,6,0,4,6,4,5,3,3,4,6,3,1,3,2,1,4,0,1,6,0,0,0,0,0,0,0,2,5,0,6,3,5,3,2,5,0,0,1,0,4,5,1,0,0,3,4,0,1,5,0,5,0,2,0,6,6,7,0,2,2,0,7,7,3,0,3,7,6,0,0,3,4,7,0,0,6,1,1,5,7,7,0,2,0,4,7,2,3,5,6,0,0,0,5,0,1,0,2,2,2,6,2,7,5,6,0,0,0,2,0,7,1,4,3,4,5,1,4,5,0,0,7,4,5,0,0,0,0,0,0,0,0,6,0,2,4,1,4,3,7,1,6,6,6,5,7,2,0,2,4,2,7,6,0,6,2,2,2,0,0,5,0,2,2,0,0,5,4,4,7,2,5,0,7,3,5,5,7,0,0,3,3,0,4,7,1,0,7,5,2,3,4,6,0,1,5,6,0,6,6,2,7,0,1,0,0,2,7,7,6,0,0,4,7,1,1,7,0,5,5,1,5,3,4,7,4,0,2,4,7,2,5,0,1,2,5,0,0,0,3,1,3,0,0,0,5,0,0,7,0,0,0,5,6,7,7,0,0,2,0,5,6,0,7,7,6,0,0,0,7,0,3,0,1,0,7,1,0,7,6,0,0,4,1,0,0,7,7,5,0,0,2,2,1,0,0,4,0,0,4,0,5,0,4,0,6,0,4,0,0,7,6,2,4,1,6,7,3,7,1,3,2,0,0,6,4,7,5,0,4,7,3,6,1,7,7,4,7,5,5,6,2,0,6,7,6,6,1,4,2,0,0,0,6,2,2,0,0,0,0,0,0,0,0,0,0,0,0,0,0,0,0,0,0,0,0,0,0,0,0,0,0,0,0,0,0,0,0,0,0,0,0,0,0,0,0,0,0,0,0,0,0,0,0,0,0,0,0,0,0,0,0,0,0,0,0,0,0,0,0,0,0,0,0,0,0,0,0,0,0,0,0,0,0,0,0,0,0,0,0,0,0,0,0,0,0,0,0,0,0,0,0,0,0,0,0,0,0,0,0,0,0,0,0,0,0,0,0,0,0,0,0,0,0,0,0,0,0,0,0,0,0,0,0,0,0,0,0,0,0,0,0,0,0,0,0,0,0,0,0,0,0,0,0,0,0,0,0,0,0,0,0,0,0,0,0,0,0,0,0,0,0,0,0,0,0,0,0,0,0,0,0,0,0,0,0,0,0,0,0,0,0,0,0,0,0,0,0,0,0,0,0,0,0,0,0,0,0,0,0,0,0,0,0,0,0,0,0,0,0,0,0,0,0,0,0,0,0,0,0,0,0,0,0,0,0,0,0,0,0,0,0,0,0,0,0,0,0,0,0,0,0,0,0,0,0,0,0,0,0,0,0,0,0,0,0,0,0,0,0,0,0,0,0,0,0,0,0,0,0,0,0,0,0,0,0,0,0,0,0,0,0,0,0,0,0,0,0,0,0,0,0,0,0,0,0,0,0,0,0,0,0,0,0,0,0,0,0,0,0,0,0,0,0,0,0,0,0,0,0,0,0,0,0,0,0,0,0,0,0,0,0,0,0,0,0,0,0,0,0,0,0,0,0,0,0,0,0,0,0,0,0,0,0,0,0,0,0,0,0,0,0,0,0,0,0,0,0,0,0,0,0,0,0,0,0,0,0,0,0,0,0,0,0,0,0,0,0,0,0,0,0,0,0,0,0,0,0,0,0,0,0,0,0,0,0,0,0,0,0,0,0,0,0,0,0,0,0,0,0,0,0,0,0,0,0,0,0,0,0,0,0,0,0,0,0,0,0,0,0,0,0,0,0,0,0,0,0,0,0,0,0,0,0,0,0,0,0,0,0,0,0,0,0,0,0,0,0,0,0,0,0,0,0,0,0,0,0,0,0,0,0,0,0,0,0,0,0,0,0,0,0,0,0,0,0,0,0,0,0,0,0,0,0],"split_type":[0,0,0,0,0,0,0,0,0,0,0,0,0,0,0,0,0,0,0,0,0,0,0,0,0,0,0,0,0,0,0,0,0,0,0,0,0,0,0,0,0,0,0,0,0,0,0,0,0,0,0,0,0,0,0,0,0,0,0,0,0,0,0,0,0,0,0,0,0,0,0,0,0,0,0,0,0,0,0,0,0,0,0,0,0,0,0,0,0,0,0,0,0,0,0,0,0,0,0,0,0,0,0,0,0,0,0,0,0,0,0,0,0,0,0,0,0,0,0,0,0,0,0,0,0,0,0,0,0,0,0,0,0,0,0,0,0,0,0,0,0,0,0,0,0,0,0,0,0,0,0,0,0,0,0,0,0,0,0,0,0,0,0,0,0,0,0,0,0,0,0,0,0,0,0,0,0,0,0,0,0,0,0,0,0,0,0,0,0,0,0,0,0,0,0,0,0,0,0,0,0,0,0,0,0,0,0,0,0,0,0,0,0,0,0,0,0,0,0,0,0,0,0,0,0,0,0,0,0,0,0,0,0,0,0,0,0,0,0,0,0,0,0,0,0,0,0,0,0,0,0,0,0,0,0,0,0,0,0,0,0,0,0,0,0,0,0,0,0,0,0,0,0,0,0,0,0,0,0,0,0,0,0,0,0,0,0,0,0,0,0,0,0,0,0,0,0,0,0,0,0,0,0,0,0,0,0,0,0,0,0,0,0,0,0,0,0,0,0,0,0,0,0,0,0,0,0,0,0,0,0,0,0,0,0,0,0,0,0,0,0,0,0,0,0,0,0,0,0,0,0,0,0,0,0,0,0,0,0,0,0,0,0,0,0,0,0,0,0,0,0,0,0,0,0,0,0,0,0,0,0,0,0,0,0,0,0,0,0,0,0,0,0,0,0,0,0,0,0,0,0,0,0,0,0,0,0,0,0,0,0,0,0,0,0,0,0,0,0,0,0,0,0,0,0,0,0,0,0,0,0,0,0,0,0,0,0,0,0,0,0,0,0,0,0,0,0,0,0,0,0,0,0,0,0,0,0,0,0,0,0,0,0,0,0,0,0,0,0,0,0,0,0,0,0,0,0,0,0,0,0,0,0,0,0,0,0,0,0,0,0,0,0,0,0,0,0,0,0,0,0,0,0,0,0,0,0,0,0,0,0,0,0,0,0,0,0,0,0,0,0,0,0,0,0,0,0,0,0,0,0,0,0,0,0,0,0,0,0,0,0,0,0,0,0,0,0,0,0,0,0,0,0,0,0,0,0,0,0,0,0,0,0,0,0,0,0,0,0,0,0,0,0,0,0,0,0,0,0,0,0,0,0,0,0,0,0,0,0,0,0,0,0,0,0,0,0,0,0,0,0,0,0,0,0,0,0,0,0,0,0,0,0,0,0,0,0,0,0,0,0,0,0,0,0,0,0,0,0,0,0,0,0,0,0,0,0,0,0,0,0,0,0,0,0,0,0,0,0,0,0,0,0,0,0,0,0,0,0,0,0,0,0,0,0,0,0,0,0,0,0,0,0,0,0,0,0,0,0,0,0,0,0,0,0,0,0,0,0,0,0,0,0,0,0,0,0,0,0,0,0,0,0,0,0,0,0,0,0,0,0,0,0,0,0,0,0,0,0,0,0,0,0,0,0,0,0,0,0,0,0,0,0,0,0,0,0,0,0,0,0,0,0,0,0,0,0,0,0,0,0,0,0,0,0,0,0,0,0,0,0,0,0,0,0,0,0,0,0,0,0,0,0,0,0,0,0,0,0,0,0,0,0,0,0,0,0,0,0,0,0,0,0,0,0,0,0,0,0,0,0,0,0,0,0,0,0,0,0,0,0,0,0,0,0,0,0,0,0,0,0,0,0,0,0,0,0,0,0,0,0,0,0,0,0,0,0,0,0,0,0,0,0,0,0,0,0,0,0,0,0,0,0,0,0,0,0,0,0,0,0,0,0,0,0,0,0,0,0,0,0,0,0,0,0,0,0,0,0,0,0,0,0,0,0,0,0,0,0,0,0,0,0,0,0,0,0,0,0,0,0,0,0,0,0,0,0,0,0,0,0,0,0,0,0,0,0,0,0,0,0,0,0,0,0,0,0,0,0,0,0,0,0,0,0,0,0,0,0,0,0,0,0,0,0,0,0,0,0,0,0,0,0,0,0,0,0,0,0,0,0,0,0,0,0,0,0,0,0,0,0,0,0,0,0,0,0,0,0,0,0,0,0,0,0,0,0,0,0,0,0,0,0,0,0,0,0,0,0,0,0,0,0,0,0,0,0,0,0,0,0,0,0,0,0,0,0,0,0,0,0,0,0,0,0,0,0,0,0,0,0,0,0,0,0,0,0,0,0,0,0,0,0,0,0,0,0,0,0,0,0,0,0,0,0,0,0,0,0,0,0,0,0,0,0,0,0,0,0,0,0,0,0,0,0,0,0,0,0,0,0,0,0,0,0,0,0,0,0,0,0,0,0,0,0,0,0,0,0,0,0,0,0,0,0,0,0,0,0,0,0,0,0,0,0,0,0,0,0,0,0,0,0,0,0,0,0,0,0,0,0,0,0,0,0,0,0,0,0,0,0,0,0,0,0,0,0,0,0,0,0,0,0,0,0,0,0,0,0,0,0,0,0,0,0,0,0,0,0,0,0,0,0,0,0,0,0,0,0,0,0,0,0,0,0,0,0,0,0,0,0,0,0,0,0,0,0,0,0,0,0,0,0,0,0,0,0,0,0,0,0,0,0,0,0,0,0,0,0,0,0,0,0,0,0,0,0,0,0,0,0,0,0,0,0,0,0,0,0,0,0,0,0,0,0,0,0,0,0,0,0,0,0,0,0,0,0,0,0,0,0,0,0,0,0,0,0,0,0,0,0,0,0,0,0,0,0,0,0,0,0,0,0,0,0,0,0,0,0,0,0,0,0,0,0,0,0,0,0,0,0,0,0],"sum_hessian":[2.600086E4,1.1578428E4,1.4422431E4,6.316411E3,5.262016E3,4.6717046E3,9.750727E3,4.8920444E3,1.424367E3,2.9505632E3,2.311453E3,3.4482576E3,1.2234468E3,3.190074E3,6.5606523E3,1.5227107E3,3.3693337E3,1.7029662E2,1.2540703E3,2.0863826E3,8.6418066E2,9.9588666E2,1.3155663E3,7.128059E2,2.7354517E3,8.868371E2,3.366097E2,7.3894794E2,2.4511262E3,3.8739993E2,6.1732524E3,8.111497E2,7.1156104E2,5.7263485E1,3.31207E3,8.1164764E1,8.913186E1,7.3371954E2,5.2035077E2,4.8549475E2,1.6008878E3,4.8649063E2,3.7769003E2,1.441546E2,8.5173206E2,7.135528E2,6.020135E2,6.099806E1,6.5180786E2,2.0106952E3,7.2475653E2,3.9486908E2,4.9196802E2,3.1694095E2,1.9668762E1,3.5528256E2,3.8366534E2,8.741395E2,1.5769866E3,2.6590173E2,1.2149818E2,4.595021E3,1.5782314E3,2.5644083E1,6.8591693E2,3.4856033E1,2.240745E1,3.199037E3,1.1303314E2,4.7304616E0,7.64343E1,7.145487E1,1.7676989E1,4.21758E2,3.1196152E2,2.4897168E0,5.178611E2,7.967094E1,4.0582382E2,9.4260675E2,6.582811E2,4.3744324E2,4.904742E1,3.0001086E2,7.767916E1,1.2822041E2,1.5934187E1,8.96298E0,8.427691E2,1.8523492E2,5.283179E2,5.440031E2,5.80104E1,5.676554E1,4.232518E0,2.9328864E2,3.585192E2,7.2575244E2,1.2849427E3,4.3072098E1,6.8168445E2,3.595151E2,3.5353977E1,7.718122E1,4.147868E2,5.80104E1,2.5893054E2,9.211952E0,1.045681E1,2.5420007E2,1.010825E2,1.6008879E2,2.2357655E2,7.952155E2,7.892402E1,3.1519812E2,1.2617885E3,3.684781E1,2.2905394E2,2.240745E1,9.909073E1,2.2031504E3,2.3918708E3,1.4353217E3,1.4290974E2,4.232518E0,2.1411564E1,5.97532E0,2.8880714E1,3.4856033E0,1.8921846E1,1.0785453E3,2.1204917E3,4.630873E1,6.672441E1,2.5395111E1,5.1039192E1,4.232518E0,6.722235E1,9.211952E0,8.465036E0,1.4440357E1,4.0731766E2,3.2615288E1,2.7934622E2,1.2448584E0,1.2448584E0,1.3195498E1,5.046656E2,1.0207838E1,6.94631E1,2.9503143E2,1.107924E2,1.3369778E2,8.0890894E2,1.5934187E2,4.9893924E2,1.6930073E1,4.2051315E2,1.3942413E1,3.5105007E1,8.465037E1,2.1536049E2,1.9917734E0,7.5687386E1,1.1552286E2,1.2697556E1,4.7304616E0,1.1203725E1,3.4856033E0,5.477377E0,7.8127313E2,6.1496002E1,3.9835467E0,1.8125137E2,3.3710764E2,1.9121024E2,2.0440575E2,3.3959735E2,2.240745E0,5.5769653E1,2.240745E0,5.4524796E1,2.98766E0,1.2448584E0,2.7561163E2,1.7676989E1,3.4781342E2,1.0705782E1,4.5462228E2,2.7113016E2,5.477377E2,7.3720514E2,3.734575E0,3.9337524E1,6.368695E2,4.48149E1,2.8681537E2,7.269973E1,1.5685215E1,1.9668762E1,6.4981606E1,1.2199612E1,1.4141591E2,2.7337088E2,3.6598835E1,2.1411564E1,2.4722887E2,1.1701669E1,1.2448584E0,7.9670935E0,7.46915E0,2.98766E0,3.9586494E1,2.1461359E2,4.2076214E1,5.9006287E1,9.535615E1,6.4732635E1,8.938083E1,1.3419572E2,6.1545795E2,1.7975755E2,6.0500114E1,1.8423904E1,2.8930508E2,2.5893053E1,1.2381361E3,2.365231E1,3.2117344E1,4.7304616E0,1.476402E2,8.1413734E1,1.8672874E1,3.734575E0,6.896516E1,3.0125572E1,8.8484534E2,1.318305E3,2.0059647E3,3.859061E2,6.732194E2,7.621023E2,4.8300503E1,9.460924E1,2.98766E0,1.2448584E0,2.0166706E1,1.2448584E0,2.7386885E0,3.2366316E0,2.240745E0,1.2448584E0,7.2201786E0,1.1701669E1,1.5087683E2,9.2766846E2,1.1452697E1,2.109039E3,5.228405E0,4.1080326E1,1.5934187E1,9.460923E0,3.9835467E0,4.7055645E1,2.240745E0,1.9917734E0,4.7304616E0,6.249189E1,2.4897168E0,6.722235E0,7.2201786E0,1.2448584E0,7.9670935E0,6.4732633E0,3.3860147E2,6.871618E1,2.390128E1,8.714008E0,2.4648195E1,2.5469801E2,5.477377E0,7.718122E0,1.4988095E2,3.5478464E2,7.46915E0,2.7386885E0,3.2366318E1,3.709678E1,3.709678E1,2.5793466E2,4.3819016E1,6.697338E1,9.684998E1,3.684781E1,6.231761E2,1.8573286E2,1.1203725E1,1.4813814E2,4.2922717E2,6.971207E1,2.7386885E0,1.4191385E1,9.6352036E1,3.241611E2,6.722235E0,7.2201786E0,5.228405E0,2.98766E1,4.157827E1,4.3072098E1,9.859278E1,1.16767715E2,2.688894E1,4.8798447E1,5.1288166E1,6.423469E1,1.2448584E0,1.1452697E1,1.49383E0,3.2366316E0,5.7263484E0,5.477377E0,2.240745E0,3.2366316E0,3.189327E2,4.623404E2,2.365231E1,3.7843693E1,1.3220396E2,4.904742E1,6.4483665E1,2.72624E2,7.593636E1,1.1527388E2,1.01829414E2,1.0257633E2,3.0075778E2,3.883958E1,3.7594723E1,1.8174932E1,1.5436244E1,3.908855E1,1.573501E2,1.1826154E2,1.6183159E1,1.49383E0,1.3917517E2,2.0863826E2,4.48149E0,6.224292E0,2.7113016E2,1.8349213E2,1.4838712E2,1.22743034E2,5.3479114E2,1.2946527E1,1.5137477E2,5.858303E2,3.7594723E1,1.7428017E0,2.8158694E2,3.5528256E2,2.8880714E1,1.5934187E1,9.834381E1,1.8847156E2,4.232518E0,6.846721E1,6.9712067E0,8.714008E0,1.8174932E1,1.49383E0,2.5395111E1,3.9586494E1,1.7428017E0,1.045681E1,1.2846938E2,1.2946527E1,2.4747784E2,2.5893053E1,1.195064E1,2.4648195E1,1.2946527E1,8.465036E0,2.0017322E2,4.7055645E1,8.96298E0,2.7386885E0,6.722235E0,1.2448584E0,2.7386885E0,4.7304616E0,1.49383E0,1.49383E0,7.46915E0,3.2117344E1,6.547955E1,1.4913403E2,3.3611176E1,8.465036E0,5.97532E0,5.3030968E1,1.2448584E0,9.411129E1,5.1537136E1,1.3195498E1,8.216065E0,8.1164764E1,1.045681E1,1.2373892E2,3.1843475E2,2.970232E2,3.734575E0,1.7602296E2,6.224292E0,5.4275826E1,7.9670935E0,1.045681E1,1.3071013E2,1.5859496E2,6.224292E0,1.9668762E1,4.7678076E2,7.6135535E2,1.8921846E1,4.7304616E0,2.4897167E1,7.2201786E0,2.7386885E0,1.9917734E0,1.4191385E1,1.3344882E2,5.4524796E1,2.688894E1,7.718122E0,1.0954754E1,6.3487778E1,5.477377E0,1.7179045E1,1.2946527E1,6.294004E2,2.5544493E2,3.488093E2,9.6949567E2,8.960491E2,1.1099156E3,2.178502E2,1.6805588E2,1.9519379E2,4.780256E2,6.074909E1,7.013532E2,7.46915E0,4.0831352E1,4.7304616E0,8.987878E1,3.734575E0,1.643213E1,1.2448584E0,1.49383E0,1.9917734E0,1.2448584E0,3.4856033E0,8.216065E0,1.3120807E2,1.9668762E1,1.2448584E0,9.264236E2,6.4732633E0,4.9794335E0,3.4856033E2,1.7604786E3,3.7843693E1,3.2366316E0,8.714008E0,7.2201786E0,4.48149E0,4.9794335E0,4.332107E1,3.734575E0,1.49383E0,3.2366316E0,4.0333412E1,2.2158478E1,2.7386885E0,3.9835467E0,5.7263484E0,2.240745E0,4.48149E0,1.9917734E0,1.5934187E1,3.226673E2,2.98766E0,6.572852E1,1.5187272E1,8.714008E0,4.48149E0,4.232518E0,2.7386885E0,2.1909508E1,2.4797578E2,6.722235E0,1.7428017E0,5.97532E0,3.508011E2,3.9835467E0,1.49383E0,1.2448584E0,1.9170818E1,1.3195498E1,3.585192E1,1.2448584E0,5.7263484E0,3.137043E1,8.763803E1,1.7029662E2,9.709895E0,3.410912E1,8.465036E0,5.8508343E1,9.261746E1,4.232518E0,1.5685215E1,2.1162592E1,3.86653E2,2.3652309E2,1.06310905E2,7.942197E1,1.49383E0,9.709895E0,2.365231E1,1.2448583E2,2.240745E0,4.2698642E2,5.054125E1,1.9170818E1,1.0705782E1,3.4856033E0,6.846721E1,2.7884827E1,2.90052E2,3.410912E1,3.9835467E0,2.7386885E0,3.2366316E0,1.9917734E0,2.688894E1,2.98766E0,3.4856033E1,6.722235E0,3.684781E1,6.224292E0,1.6930073E1,8.1662704E1,7.0458984E1,4.630873E1,9.709895E0,1.7179045E1,1.7428017E0,4.9545364E1,2.1660536E1,4.2574154E1,9.709895E0,1.7428017E0,4.48149E0,1.2448584E0,3.9835467E0,1.49383E0,1.49383E0,1.7428017E0,3.1768787E2,1.2448584E0,4.2823128E1,4.1951727E2,1.8921846E1,4.7304616E0,2.98766E1,7.9670935E0,7.2201786E0,1.2498378E2,3.1121458E1,1.792596E1,3.0374544E1,3.410912E1,2.6963632E2,2.98766E0,3.5353977E1,4.0582382E1,8.44014E1,3.0872488E1,1.0008661E2,1.7428017E0,7.0956924E1,3.1619402E1,1.9942632E2,1.0133147E2,2.5395111E1,1.344447E1,1.2697556E1,2.4897167E1,8.96298E0,9.211952E0,3.4856033E0,1.195064E1,3.6349865E1,2.7386885E0,1.4290974E2,1.4440357E1,7.0210014E1,4.8051533E1,1.49383E0,1.4689328E1,9.012775E1,4.904742E1,1.9369997E2,1.49383E1,2.98766E0,1.49383E0,2.171033E2,5.402685E1,1.0929856E2,7.419356E1,1.3195498E1,1.3519162E2,8.738905E1,3.5353977E1,4.4043088E2,9.436026E1,5.228405E0,7.718122E0,1.3469368E2,1.6681103E1,5.245833E2,6.1247032E1,6.9712067E0,3.0623516E1,2.654038E2,1.6183159E1,3.3959735E2,1.5685215E1,1.49383E0,2.7386885E1,1.3693442E1,2.240745E0,3.2366316E0,9.510718E1,4.730462E1,1.4116693E2,2.4897168E0,1.7428017E0,4.9794334E1,1.8672874E1,4.232518E0,2.7386885E0,7.46915E0,1.2448584E0,8.465036E0,9.709895E0,3.2366316E0,2.2158478E1,6.722235E0,3.286426E1,5.776143E1,7.0707954E1,1.49383E0,1.1452697E1,1.7552502E2,7.195281E1,1.0207838E1,1.5685215E1,1.49383E0,1.045681E1,3.9835467E0,8.96298E0,6.9712067E0,1.49383E0,1.3793031E2,6.2242916E1,3.4856033E0,4.357004E1,5.477377E0,3.4856033E0,1.7428017E0,4.9794335E0,1.2448584E0,1.49383E0,3.734575E0,3.734575E0,1.49383E0,3.0623516E1,2.6390997E1,3.908855E1,1.16767715E2,3.2366318E1,3.2117344E1,1.49383E0,4.9794335E0,3.4856033E0,1.8174932E1,3.4856033E1,1.7428017E0,9.236849E1,1.8423904E1,3.311323E1,1.2448584E0,1.195064E1,3.734575E0,4.48149E0,7.444253E1,6.722235E0,1.7428017E0,8.714008E0,1.06808846E2,1.6930073E1,1.344447E2,1.8399007E2,1.2523275E2,1.7179045E2,1.49383E0,2.240745E0,1.7079457E2,5.228405E0,1.2448584E0,4.9794335E0,3.137043E1,2.2905394E1,9.211952E0,1.2448584E0,8.0915794E1,4.9794334E1,1.3693442E2,2.1660536E1,1.7428017E0,4.48149E0,1.1452697E1,8.216065E0,2.5519597E2,2.215848E2,7.4293146E2,1.8423904E1,2.240745E0,1.6681103E1,1.2448584E0,2.365231E1,1.49383E0,5.7263484E0,1.49383E0,1.2448584E0,9.958867E0,4.232518E0,2.6639969E1,1.06808846E2,1.9668762E1,3.4856033E1,1.045681E1,1.643213E1,2.4897168E0,5.228405E0,2.4897168E0,8.465036E0,1.2448584E0,4.232518E0,8.216065E0,8.96298E0,7.842608E1,5.509743E2,2.2880496E2,2.6639969E1,2.275601E2,1.2124921E2,2.2980086E2,7.396948E2,3.216714E2,5.743776E2,8.360469E2,2.7386884E2,8.913186E1,1.2871835E2,1.1054342E2,5.7512455E1,2.240745E0,1.9295305E2,1.06061935E2,3.7196368E2,2.1411564E1,3.9337524E1,1.4191385E1,6.871618E2,1.2448584E0,6.224292E0,2.240745E0,3.859061E1,3.2366316E0,8.664214E1,1.7428017E0,1.9917734E0,5.7263484E0,2.4897168E0,5.3528908E1,7.767916E1,6.224292E0,1.344447E1,9.2492975E2,1.49383E0,1.7428017E0,4.7304616E0,2.240745E0,2.7386885E0,3.206755E2,2.7884827E1,1.5737499E3,1.8672876E2,6.9712067E0,3.0872488E1,1.49383E0,5.7263484E0,1.2448584E0,3.2366316E0,1.2448584E0,3.734575E0,2.98766E1,1.344447E1,2.4897168E0,1.2448584E0,1.7428017E0,1.49383E0,1.6681103E1,2.365231E1,1.3942413E1,8.216065E0,2.4897168E0,1.49383E0,1.2448584E0,4.48149E0,1.2448584E0,3.2366316E0,1.4689328E1,1.2448584E0,8.0915794E1,2.417515E2,1.49383E0,1.49383E0,1.9917734E0,6.3736748E1,9.460923E0,5.7263484E0,7.46915E0,1.2448584E0,2.98766E0,1.49383E0,2.98766E0,1.2448584E0,7.2201786E0,1.4689328E1,9.062569E1,1.573501E2,5.477377E0,1.2448584E0,1.49383E0,4.48149E0,2.8133799E1,3.226673E2,1.7428017E0,2.240745E0,6.224292E0,1.2946527E1,1.0705782E1,2.4897168E0,3.311323E1,2.7386885E0,2.240745E0,2.9129686E1,8.1662704E1,5.97532E0,1.6905176E2,1.2448584E0,1.49383E0,8.216065E0,8.714008E0,2.5395111E1,3.9835467E0,4.48149E0,8.465036E0,5.0043304E1,1.9917734E0,9.062569E1,2.7386885E0,1.49383E0,1.045681E1,5.228405E0,3.734575E0,1.7428017E1,4.2574154E1,3.4407886E2,3.734575E1,1.9917734E2,8.390345E1,2.240745E1,2.5893053E1,5.3528908E1,9.211952E0,1.4440357E1,1.2124921E2,3.2366316E0,3.2391214E2,1.0307427E2,4.5063873E1,5.477377E0,2.7386885E0,1.643213E1,5.477377E0,5.228405E0,1.2448584E0,2.240745E0,2.6639969E1,4.182724E1,6.4732633E0,2.1411564E1,1.0207838E1,2.7984415E2,2.7137913E1,6.9712067E0,1.49383E0,2.4897168E0,1.49383E0,1.2448584E0,6.9712067E0,1.9917734E1,1.7428017E0,1.2448584E0,1.7428017E0,3.311323E1,1.7428017E0,4.9794335E0,3.4856033E1,1.9917734E0,2.7386885E0,3.4856033E0,1.4191385E1,2.7386885E0,9.958867E0,7.170384E1,6.821824E1,2.240745E0,3.9337524E1,6.9712067E0,4.232518E0,5.477377E0,3.684781E1,1.2697556E1,1.7428017E0,1.9917734E1,3.4856033E1,7.718122E0,2.4897168E0,1.49383E0,2.1735226E2,1.0033559E2,2.8133799E1,1.4689328E1,4.232518E0,4.1528476E2,1.2448584E0,1.7676989E1,3.4856033E0,1.2448584E0,3.4856033E0,2.6390997E1,5.97532E0,1.9917734E0,4.48149E0,2.7386885E0,1.0755576E2,1.7428017E1,2.9627628E1,1.49383E0,1.344447E1,4.48149E0,5.228405E0,2.514614E1,2.2158478E1,1.195064E1,2.161074E2,5.3528908E1,2.6142025E1,9.211952E0,2.8631742E1,1.195064E1,6.249189E1,2.1909508E1,1.0954754E1,1.9917734E1,1.2448584E0,9.884175E1,5.9006287E1,1.195064E1,8.216065E0,2.3403337E1,1.9718556E2,2.240745E0,2.514614E1,7.618533E1,2.390128E1,1.49383E0,3.734575E0,8.96298E0,1.0207838E1,1.4689328E1,1.2448584E0,7.718122E0,1.7428017E0,7.46915E0,2.7386885E0,9.211952E0,3.410912E1,2.240745E0,1.2448584E0,1.49383E0,1.3145705E2,1.1452697E1,1.0705782E1,3.734575E0,6.4732635E1,5.477377E0,1.7428017E1,3.0623516E1,1.2697556E1,1.9917734E0,7.693224E1,1.3195498E1,4.730462E1,1.7428017E0,3.8092667E1,1.556073E2,1.0705782E1,4.232518E0,1.7428017E0,1.2448584E0,1.4515048E2,7.195281E1,2.8133799E1,2.5893053E1,8.315654E1,2.6142025E1,3.9586494E1,3.4607063E1,1.2448584E0,1.195064E1,1.3021219E2,4.9794335E0,4.48149E1,4.2574154E1,2.8880714E1,6.4732633E0,3.8789786E2,5.2533024E1,9.1123634E1,3.2366316E0,1.49383E0,3.734575E0,5.7263484E0,1.9917734E0,1.07057816E2,2.7635855E1,5.230895E2,1.49383E0,1.2946527E1,4.8300503E1,5.7263484E0,1.2448584E0,1.3693442E1,2.5171036E2,9.958867E0,6.224292E0,3.1943066E2,2.0166706E1,1.1701669E1,3.9835467E0,2.240745E0,2.514614E1,1.195064E1,1.7428017E0,1.2448584E0,1.9917734E0,5.1039192E1,4.4067986E1,3.1868374E1,1.5436244E1,5.676554E1,8.44014E1,1.2448584E0,1.2448584E0,3.4856033E1,1.49383E1,1.6930073E1,1.7428017E0,2.4897168E0,1.7428017E0,1.49383E0,1.2448584E0,2.4897168E0,4.9794335E0,6.224292E0,2.240745E0,4.48149E0,5.228405E0,1.2448584E0,1.9917734E0,1.4191385E1,7.9670935E0,2.7386885E0,3.9835467E0,1.3195498E1,1.9668762E1,2.8133799E1,2.9627628E1,5.228405E0,6.547955E1,9.958867E0,1.49383E0,5.651657E1,1.1900846E2,4.9545364E1,2.240745E1,1.9917734E0,8.216065E0,1.195064E1,3.734575E0,8.96298E0,1.49383E0,2.7386885E0,1.2448584E0,6.224292E0,2.7386885E0,1.1701669E1,5.054125E1,2.240745E0,1.2448584E0,1.1203725E1,3.2366318E1,1.2448584E0,2.240745E0,3.734575E0,1.2448584E0,2.4897168E0,1.2448584E0,7.9670935E0,1.8423904E1,3.286426E1,6.224292E0,2.4399223E1,9.236849E1,1.1701669E1,2.0664648E1,1.2448584E0,3.734575E0,4.7304616E0,1.344447E1,1.8672874E1,1.6183159E1,1.49383E0,9.087466E1,1.9917734E0,1.643213E1,3.1121458E1,1.9917734E0,1.9917734E0,2.4897168E0,5.97532E1,1.4689328E1,3.9835467E0,2.7386885E0,7.2201786E0,1.49383E0,7.867505E1,2.8133799E1,1.0207838E1,6.722235E0,6.3487778E1,7.0956924E1,1.1303314E2,7.0956924E1,9.286643E1,3.2366318E1,1.6307645E2,8.714008E0,9.062569E1,8.016888E1,1.49383E0,3.734575E0,2.365231E1,7.718122E0,2.1162592E1,1.7428017E0,7.9670935E0,1.2448584E0,7.967094E1,1.2448584E0,1.9917734E0,4.780256E1,5.1039192E1,8.5895226E1,7.718122E0,1.3942413E1,8.714008E0,2.7386885E0,1.7428017E0,6.4732633E0,2.4299635E2,1.2199612E1,2.178502E2,3.734575E0,4.5636508E2,2.865664E2,4.232518E0,1.4191385E1,2.240745E0,1.4440357E1,1.49383E0,2.2158478E1,3.4856033E0,2.240745E0,1.49383E0,8.465036E0,1.49383E0,2.7386885E0,2.3403337E1,3.2366316E0,2.7884827E1,7.892402E1,1.49383E0,1.8174932E1,2.091362E1,1.3942413E1,5.97532E0,4.48149E0,2.7386885E0,1.3693442E1,1.2448584E0,1.2448584E0,2.7386885E0,2.4897168E0,1.2448584E0,1.2448584E0,4.232518E0,4.232518E0,5.228405E0,2.98766E0,6.9712067E0,1.9917734E0,4.630873E1,3.2117344E1,2.3527823E2,3.1569608E2,1.4290974E2,8.5895226E1,3.4856033E0,2.3154366E1,1.9046333E2,3.709678E1,3.1121458E1,9.012775E1,1.8075343E2,4.904742E1,2.9627628E1,7.100672E2,6.547955E1,2.5619186E2,2.977701E2,2.766075E2,1.2822041E2,7.078265E2,1.9195715E2,8.191168E1,1.643213E1,7.269973E1,7.5687386E1,5.3030968E1,3.2366316E0,1.0730679E2,1.8672874E1,3.883958E1,4.0582382E1,1.5237067E2,1.8423904E1,8.763803E1,1.7901064E2,1.9295305E2,1.3195498E1,8.216065E0,2.091362E1,1.8423904E1,5.228405E0,8.96298E0,6.821824E2,4.9794335E0,1.7676989E1,2.091362E1,1.2448584E0,1.9917734E0,4.9794335E0,8.1662704E1],"tree_param":{"num_deleted":"0","num_feature":"8","num_nodes":"1303","size_leaf_vector":"1"}},{"base_weights":[-2.9589382E-3,-7.674693E-1,6.529568E-1,-1.2168388E0,-2.3260249E-1,3.3042905E-1,8.458552E-1,-1.3199068E0,-8.700345E-1,1.06861725E-1,-7.800879E-1,5.29531E-1,-5.9219074E-1,1.1032863E0,7.368631E-1,-1.5136367E0,-1.2404726E0,-1.6886264E-1,-9.9666375E-1,-1.5667108E-1,8.0007374E-1,-9.7173536E-1,4.538243E-1,-2.879943E-2,6.315366E-1,-3.5309362E-1,-9.7886187E-1,4.68494E-1,1.2070148E0,9.5723234E-2,8.34584E-1,-3.4939754E-1,-1.4598722E0,-1.2654511E0,-7.669487E-1,3.447516E-1,-2.9546425E-1,-8.9531434E-1,-1.3262855E0,-1.3727829E-2,-1.0067072E0,1.9512302E-1,1.0544404E0,-1.0799487E0,-5.8728623E-1,8.944658E-2,1.4181714E0,2.4374084E-1,-3.2024223E-1,7.8888303E-1,2.4977604E-1,-7.3167956E-1,-1.6568695E-1,-1.0740832E0,-2.9656625E-1,1.5614527E-1,8.5085124E-1,-4.6761742E-1,1.2173861E0,5.07797E-1,-6.7816365E-1,7.33186E-1,1.1240704E0,-1.1362882E0,-3.2951444E-1,-4.4988307E-1,-1.2787538E0,5.516439E-1,-9.943074E-1,9.928396E-1,-1.6559911E-1,-3.8832265E-1,5.3017336E-1,-1.0410981E0,-6.8763727E-1,7.669099E-2,-1.3345753E0,-4.1548356E-1,2.0823713E-1,-1.2941985E0,-4.855375E-1,9.5810235E-1,7.634129E-2,1.2387954E0,5.82347E-1,5.401781E-1,-1.0989459E0,8.7126344E-1,-9.076791E-1,3.042963E-1,-5.070012E-1,1.5412443E0,7.87075E-1,1.8391173E-1,1.1277338E0,-8.453771E-1,-1.9663797E-1,6.472899E-1,9.4144875E-1,-7.35477E-2,3.9381665E-1,-8.407281E-1,6.5900564E-2,-8.6358875E-1,-4.5657843E-2,-1.2250514E0,-8.4839785E-1,6.294328E-2,-1.1340964E0,8.185371E-1,-8.654114E-2,9.775258E-1,-3.568804E-1,2.1258001E-1,-1.0176687E0,9.919128E-1,1.2824402E0,2.503807E-1,8.771984E-1,-2.6120657E-1,-1.0774406E0,9.480154E-1,5.766879E-1,1.251455E0,4.9720192E-1,-1.2633263E0,-1.8222024E-1,-1.1279873E0,5.683599E-1,-1.2563146E0,-1.4418429E0,-3.7497026E-1,1.1970916E0,-2.6046133E-1,-1.1834927E0,1.161525E0,-2.0272322E-1,-1.0637021E0,1.2863811E0,-3.1583628E-1,-1.2526946E0,1.1298579E0,-3.3468506E-1,-4.2281345E-1,-1.0650725E0,-4.861551E-1,-8.8841045E-1,-1.342601E0,3.175833E-2,6.195323E-1,-5.047521E-1,8.154598E-1,4.305199E-2,-1.3059907E0,1.1016777E-1,-7.163484E-1,6.665792E-4,-4.1129744E-1,1.378732E0,-4.1288713E-1,2.1918204E-1,-2.386034E-1,1.2558597E0,1.4667706E0,4.1511878E-1,-6.1820424E-1,1.6339548E0,-1.1470399E0,-6.669849E-1,1.140738E0,-9.933565E-2,-1.0100193E0,-4.0301067E-1,6.325044E-1,-3.576812E-1,-5.8676577E-1,2.0938139E-1,1.0367941E0,3.7765518E-1,1.2538332E0,-6.3086164E-1,-1.2245547E0,2.1693364E-1,1.4166989E0,3.7397623E-2,-1.225026E0,-3.2801354E-1,-5.1182044E-1,8.1576616E-2,5.030278E-1,1.067131E0,3.305751E-1,1.0171013E0,1.310617E0,-1.5505539E-1,3.4447008E-1,1.0634159E0,-7.3319286E-1,-1.1566012E0,9.661719E-1,-5.7871336E-1,-5.4663163E-1,-1.4116035E0,3.560416E-1,-2.1607125E-1,-6.766506E-1,-1.2526234E0,-5.4817444E-1,-1.099747E0,-2.4777733E-1,1.3149431E0,-6.0504496E-1,-3.510373E-1,-6.940374E-1,1.1847498E0,1.9100556E-1,-6.7741424E-1,7.120871E-1,1.5340929E0,3.137625E-1,-1.0571102E0,8.7915564E-1,-3.9363107E-1,-3.231514E-1,1.15569055E-1,1.3926697E0,7.5837505E-1,1.093196E0,1.378525E0,4.3871027E-1,-4.3363392E-1,-6.946869E-1,9.9589205E-1,-7.5238734E-1,1.6518168E-1,-1.1725044E0,6.275307E-1,3.9811942E-1,1.0724263E0,4.9868923E-1,1.0961882E0,8.754997E-1,1.3642776E0,-1.1190428E0,6.7731297E-1,-2.9659522E-1,-2.9739171E-2,-1.7927408E-1,1.5931259E-1,-2.1742243E-2,-3.0611002E-1,-6.8191016E-1,8.275289E-1,-1.2737114E0,-6.167026E-1,-1.4487603E0,9.499516E-2,-2.5811115E-1,1.1265549E-1,1.4170041E0,2.3173477E-1,-5.8164304E-1,3.0202395E-1,-1.2538726E0,-8.0232185E-1,3.5332587E-1,7.7308E-1,-6.529524E-2,-1.3898124E0,4.685517E-1,3.7373337E-1,-6.487719E-1,-1.4986688E-1,1.7486863E-2,-1.4697568E0,-1.3734281E-1,1.3620349E0,-1.1019484E0,-1.7320243E-1,-5.5267906E-1,-1.0864542E0,-1.0547181E0,-3.567344E-1,-9.371934E-1,-2.8018156E-1,-1.348325E0,3.9262907E-3,-2.9328948E-1,7.859336E-1,-6.204614E-1,-2.647815E-1,1.2923951E0,2.4019806E-1,-3.7817606E-1,2.844538E-1,-1.384886E0,-1.0925953E0,4.5877093E-1,-8.148674E-1,-1.7790902E-1,5.200493E-1,-8.267958E-1,2.0119654E-1,1.5194085E0,-1.5910794E-1,7.370823E-1,-6.375554E-1,3.9914072E-1,1.9942433E-2,-2.3951712E-1,1.2702438E0,-2.2097075E-1,1.6131827E0,2.6406756E-1,1.4031855E0,-1.1734321E0,5.783289E-1,5.2278597E-2,4.0957382E-1,-1.0438781E0,-1.2914854E0,6.2292527E-2,-8.5985196E-1,-6.626036E-2,1.4477977E0,-3.6329573E-1,3.5967374E-1,-5.2126116E-1,-1.0996414E0,3.0210125E-1,-7.577457E-1,-2.5182626E-1,7.968216E-1,-8.703451E-1,-1.0766658E-1,9.022134E-2,-7.522079E-1,-2.0598139E-1,1.4057987E0,3.4315228E-1,-1.22436106E-1,-3.0464685E-1,1.4060144E-1,-3.135653E-1,-4.3365907E-2,6.163772E-1,9.006732E-2,3.6849692E-1,9.5161676E-1,1.8573833E-1,-4.677648E-1,-3.5170358E-1,-4.6741998E-1,1.4855173E0,-7.540777E-1,-6.380722E-1,9.896019E-3,5.079739E-3,1.3338164E0,7.4181956E-1,3.0953434E-1,6.6903466E-1,1.3614872E0,4.551541E-1,-7.9393077E-1,1.1861695E0,8.00499E-1,-2.1464564E-1,3.5023087E-1,-2.1794759E-1,1.1825941E0,5.506985E-1,1.6590053E-1,8.226623E-1,3.6692545E-1,-9.182527E-1,-2.5311348E-1,-5.161338E-1,-3.187351E-1,1.1479448E0,-4.358152E-2,-1.1013851E0,-7.8960456E-2,-1.9001514E-1,-1.000867E0,-7.894077E-1,-1.5148253E0,1.530668E0,2.6952797E-1,-4.2225003E-1,2.843833E-1,-1.1059403E0,4.625284E-1,-1.3081728E0,-1.1004436E0,-2.5803176E-1,-9.7769016E-1,-3.8476393E-1,-1.1292331E0,-5.444071E-1,4.5170635E-1,7.6268345E-2,3.3165142E-1,-2.801879E-1,1.8328905E-1,2.886058E-1,-3.0050045E-1,-2.94021E-1,1.3655958E0,3.3553103E-1,-1.0281861E0,-8.916588E-1,4.52356E-1,2.9245964E-1,1.0070411E0,1.9620855E-1,1.620613E0,-2.349674E-1,3.030687E-1,-3.3566076E-1,8.351457E-2,2.5555003E-1,4.353992E-2,-2.1986791E-1,1.3905264E-1,9.953616E-2,1.4676577E0,-1.34387E-1,8.463449E-1,1.3424845E0,8.4721327E-1,1.4268525E0,1.1929821E0,2.5268877E-1,9.989571E-1,2.2188541E-1,-8.680351E-1,5.935895E-1,-1.111741E0,1.1084738E0,8.433438E-2,-2.0146438E-1,-1.2644143E0,-8.699488E-1,4.3448713E-1,-4.257765E-1,-1.2883115E0,3.500832E-1,-2.8963512E-1,1.5086231E0,1.909457E-1,1.0853003E0,-1.101621E0,3.0939505E-1,6.533765E-1,1.1466279E0,-2.689997E-1,5.9285194E-1,1.1850482E0,1.4329671E0,9.6057963E-1,-5.149511E-1,-1.2706598E0,9.8529667E-1,4.4417715E-1,6.6052395E-1,-6.275685E-1,-1.9149445E-1,-2.9739171E-2,1.2866755E-1,3.3886534E-1,-1.3023981E0,-1.1678277E0,1.295973E0,-7.142377E-1,-1.4531118E0,-6.195621E-2,2.5815314E-1,-7.04513E-1,1.6070062E0,4.2751214E-1,-9.518567E-2,1.907958E-1,-2.62947E-1,-1.1435452E0,-1.2731898E0,-5.884428E-1,-2.4488099E-1,-1.3834488E0,-2.812477E-1,1.090106E0,-7.831488E-1,2.7263746E-1,-3.386265E-1,-8.8549115E-2,2.7473223E-1,-1.5676358E-1,4.493589E-1,-8.3942825E-1,2.814E-1,-3.8289082E-1,-3.47479E-1,-1.01733446E-1,1.5875604E0,4.518902E-3,-1.1953169E-2,-3.0555114E-1,1.9619696E-1,-9.449837E-1,-1.182254E0,-1.3969178E-1,-9.998995E-1,-1.2227237E0,-1.2822129E0,-6.2252116E-1,3.4805697E-1,-4.1733608E-1,-9.675654E-1,-8.916566E-2,4.102637E-1,-1.0254264E0,-1.3941793E0,-1.1796008E0,1.0349834E0,-4.4480685E-2,-6.372059E-2,-6.547545E-1,-5.4013893E-2,-4.6915722E-1,1.360228E0,-6.42942E-1,-1.6127224E-1,1.0200644E0,-2.7873823E-1,-1.0228895E0,8.199447E-1,1.3281266E-1,-2.6055225E-3,-1.3953712E0,-8.326517E-1,-1.3490845E0,9.986028E-1,-2.2296388E-1,-5.333629E-1,-1.0653569E0,-5.2694523E-1,1.1090397E-1,9.17337E-1,-9.02382E-3,-7.917451E-3,-1.143677E0,2.889419E-1,3.662534E-1,-2.8993975E-2,1.0326754E0,3.392026E-1,-8.291726E-1,-1.0634307E0,4.8990992E-1,1.1095034E0,-1.14131995E-1,2.2526799E-1,-8.808296E-1,1.2872212E0,1.8289137E-1,4.0540656E-1,5.590372E-1,6.034285E-1,-1.769277E-1,3.4414965E-1,-5.7850103E-3,-3.0306008E-1,-9.886702E-2,-4.3660145E-2,2.442254E-1,-1.158891E0,-1.3825853E-1,-6.901821E-1,-1.3209236E0,-4.030869E-1,7.0513624E-1,2.0401897E-1,-9.117545E-1,3.0629006E-1,-6.1571836E-1,-2.3517732E-1,1.5702859E0,4.458766E-1,-8.624995E-1,-1.2499697E0,-9.310532E-1,-2.7707282E-1,6.7357194E-1,8.178676E-2,-9.916089E-1,1.804679E-1,-9.205483E-1,1.1831406E0,3.8007045E-1,-1.1679578E0,-1.1165898E-1,1.5978645E-1,-5.629034E-1,-4.1504225E-1,5.240878E-1,-3.3460292E-1,-6.0633683E-1,3.5192007E-1,7.83679E-2,1.558039E0,4.1393593E-1,4.8075737E-3,8.038234E-1,-1.2711638E-1,3.4783494E-1,5.0284352E-2,-1.935198E-1,1.0808765E0,-1.2584953E0,9.977704E-2,3.7582383E-1,4.7092134E-1,-1.2797217E0,6.501146E-1,-6.923117E-1,-1.118092E0,3.1608552E-1,1.0145916E0,-8.11707E-2,3.6440915E-1,8.967918E-3,7.7645755E-1,-4.355616E-1,-1.5662577E-2,6.0637426E-1,1.1653847E0,3.4028694E-1,1.5581684E0,1.1172973E0,1.1815175E-1,9.2309374E-1,3.7545598E-1,-1.2213361E0,-1.1864884E-1,1.2141712E0,4.1108873E-1,9.4977653E-1,-3.448645E-1,1.172055E-1,1.836978E-2,1.3859929E0,3.841128E-1,8.832286E-1,-2.3724653E-2,6.13188E-1,3.8683447E-1,1.445084E0,-6.912587E-1,-1.3333327E0,4.4477877E-1,-4.142566E-1,-9.056739E-1,2.1612048E-1,6.9033965E-2,3.006837E-1,-3.2162517E-1,1.5524364E-2,7.785124E-1,-8.3992296E-1,1.1701904E-1,-1.1954597E0,-1.1634482E0,1.348252E-3,-2.8025272E-1,7.149989E-2,-3.5248777E-1,-1.2195602E-1,3.8981357E-1,7.883657E-2,-3.9789495E-1,4.3656424E-1,-1.109105E0,-3.2649595E-1,9.0758485E-1,6.0997553E-2,-4.4619273E-2,-2.844643E-1,-9.529019E-2,2.3731503E-1,-8.881449E-1,-3.0475467E-1,-3.178983E-1,-8.7928194E-1,-1.2465637E0,8.14799E-2,-1.0772983E0,-1.6809995E-3,-2.6119444E-1,1.8547486E-1,-1.04858205E-1,-2.5646442E-1,5.545577E-1,-7.626929E-1,-7.498176E-2,7.85446E-1,3.5231176E-1,4.7416174E-1,5.533163E-1,-5.7603025E-1,-6.4859716E-3,-1.2460015E0,-1.1727422E0,-4.5578748E-1,8.763516E-1,-1.9342513E-1,4.7059342E-1,-1.0587257E0,5.927285E-1,1.2941254E0,-2.376746E-1,2.572359E-1,1.6799955E0,6.6952354E-1,2.5974685E-1,-8.5677755E-1,3.4640327E-1,-1.2506036E0,1.3050919E0,3.845125E-1,-4.7896746E-1,9.238591E-1,1.0292217E0,3.2695663E-1,1.0118145E0,1.4741216E0,7.031826E-2,1.0044786E0,1.4330398E0,-2.4648009E-1,6.437271E-1,1.4254042E0,-9.325245E-1,3.5692763E-1,-3.280637E-1,1.1081982E0,-1.1405854E0,8.3008903E-1,-1.2715522E0,-5.098959E-1,3.0036852E-1,-5.087436E-2,-1.4651351E0,2.474872E-1,1.3772179E0,7.410803E-1,-8.469167E-1,7.442313E-1,-8.2375896E-1,7.361304E-1,-9.06787E-1,-1.5563911E0,-3.1952837E-1,-3.3081678E-1,6.01567E-1,-8.0810535E-1,-9.8260206E-1,3.4945208E-1,-3.1768498E-1,-8.220563E-1,7.606499E-1,4.0736374E-1,7.72394E-1,-3.1660035E-2,9.955138E-1,1.5109128E0,-2.693927E-1,-6.5486714E-2,4.554597E-1,-1.8668157E-1,1.2600269E0,5.8151084E-1,-8.550582E-1,1.1728766E0,2.938367E-1,-8.088563E-1,7.0249313E-1,-9.565926E-1,1.3057164E0,6.696861E-1,1.2528797E0,1.5343795E0,-1.0390791E0,1.113556E0,-9.011363E-1,7.383913E-2,-7.6666784E-1,-1.3993526E0,3.147836E-1,1.214053E0,-4.6323976E-1,7.536151E-1,-2.9739171E-2,2.4859034E-1,-2.4519601E-1,5.761232E-2,2.6706925E-1,-1.2508833E-1,-2.3407115E-1,-2.9508844E-1,-1.23842135E-1,-2.744923E-1,3.5137692E-1,7.866377E-2,-1.927752E-1,-2.7073836E-2,-3.353207E-1,-2.987216E-1,-2.4649048E-1,6.854624E-2,3.9989606E-1,7.3446654E-2,-1.1025514E-1,2.5619462E-1,-2.1689387E-2,-2.740265E-1,-3.1644922E-1,-3.973207E-3,-1.6122991E-1,-2.923189E-1,-2.759269E-1,7.481384E-2,2.9218352E-1,-1.2947929E-1,-3.411636E-1,-7.0732705E-2,-2.4320559E-1,1.450746E-1,6.896861E-2,3.5127807E-1,-2.4141191E-1,-1.6549587E-2,3.1254527E-1,-1.5043083E-1,-3.1006E-1,-1.5318319E-1,-2.553458E-1,8.808901E-2,-1.0562395E-1,1.267138E-1,3.792101E-1,1.402138E-1,-9.6391484E-2,1.427694E-1,-3.0113006E-1,5.7825507E-3,-9.4423205E-2,-3.199083E-1,-1.0174957E-1,1.0777718E-1,-2.3746037E-1,-1.5376088E-1,-2.3571761E-1,-3.0151352E-1,-1.5028314E-1,-3.0514666E-1,4.3306105E-2,-2.2858576E-1,1.696433E-1,-6.884475E-2,-9.47916E-3,-1.2523483E-1,-1.7902444E-1,-2.4235608E-1,1.1866849E-1,-2.6720375E-1,2.313015E-1,-2.2884877E-2,-3.1783658E-1,2.7618125E-2,-2.4673629E-1,-3.210854E-1,-6.151312E-2,-2.9165244E-1,9.07995E-2,3.2007256E-1,-1.8571803E-1,3.3118406E-1,-2.627288E-1,5.1458307E-2,-1.7259745E-1,-1.09240696E-1,-1.11328624E-1,4.9183916E-2,-1.6446318E-1,-4.695112E-2,1.8977785E-1,3.4185046E-1,-1.9827732E-1,-7.22956E-3,-6.758202E-2,3.2065263E-1,2.7038598E-1,-3.5555724E-2,-1.5261176E-2,-1.0780993E-1,-2.888111E-1,-6.836639E-2,-5.2272025E-2,2.253115E-1,-1.0065559E-1,9.507876E-2,-3.1502816E-1,-3.596686E-2,-2.6488307E-1,-5.6080908E-2,-1.311697E-2,-3.137539E-1,3.0217782E-1,9.4385125E-4,1.2997638E-1,-1.6180657E-1,-2.8945416E-1,-1.550749E-1,-2.570899E-1,2.615875E-2,1.1727526E-1,-1.5345326E-1,-1.8982831E-2,2.97935E-1,-2.4627626E-1,1.6700695E-1,-3.1035396E-1,-6.580765E-2,2.5414735E-1,-1.5388598E-1,1.412102E-1,3.0460083E-1,-6.76032E-2,1.6974963E-1,-1.1563871E-1,-3.137983E-1,-2.8681898E-1,-2.9277734E-2,2.4470372E-1,7.498422E-2,8.905199E-2,3.6819065E-1,-2.461918E-1,5.0540394E-3,3.5571642E-2,-3.1585997E-1,2.6872623E-1,3.507334E-1,1.4985341E-1,-1.9827524E-1,3.2756954E-1,-2.6897028E-1,2.3329914E-1,-5.0525162E-3,-1.1926997E-1,1.5051673E-1,-2.7518532E-1,-2.058153E-1,4.265629E-2,-1.2478559E-1,-3.0119234E-1,4.5450468E-2,-3.1279415E-1,-2.5993523E-1,-1.7880893E-3,-2.8754014E-1,-2.2366501E-1,2.1696116E-1,-1.9455127E-1,3.0652985E-1,-2.4481435E-1,-1.6154562E-1,-2.489601E-1,2.7656615E-1,3.7005684E-1,9.847198E-2,-4.340197E-3,2.8417838E-1,-3.593132E-1,-5.9671674E-2,-2.3858035E-1,-2.999547E-1,-1.0059944E-1,-2.385949E-1,1.1660743E-1,-1.4603105E-1,3.1503204E-1,4.1631326E-2,-8.4069625E-2,2.0955232E-1,-2.4354446E-1,7.874498E-2,1.07227065E-1,-2.3046798E-1,-3.134946E-1,3.1309467E-2,3.095703E-1,4.140098E-2,-9.734678E-2,1.6972548E-1,-1.2776186E-1,-3.4216192E-1,1.7135946E-1,-2.635174E-1,-2.1255772E-1,9.437779E-2,-2.2157234E-1,7.4762404E-2,1.0857553E-2,-2.3207648E-1,2.242434E-1,-1.4321391E-1,-8.690184E-3,-2.003548E-1,3.0233245E-2,3.879472E-1,2.8613176E-2,2.8444335E-1,-2.6838062E-2,8.7684825E-2,-2.3437068E-1,2.4026586E-1,-7.084335E-3,3.3270687E-1,-3.2419962E-1,-1.5919453E-2,-2.719155E-1,2.9229254E-1,-9.27024E-2,-3.318981E-1,-5.20447E-2,2.609868E-1,-2.6206246E-1,-1.2770312E-1,-3.100967E-1,-2.6734827E-2,1.1034568E-1,-2.5332126E-1,3.1403086E-1,-2.2778177E-1,-7.863478E-2,3.5778496E-2,1.9495086E-1,7.054063E-2,-3.5235006E-1,3.199194E-3,-6.47562E-2,3.4311645E-2,1.8453221E-1,8.320884E-2,-1.6722493E-1,2.7969092E-1,-1.6199126E-3,2.802809E-1,3.63429E-1,1.5665053E-1,-1.12518504E-1,2.7546737E-1,3.3233768E-1,-2.2134796E-2,2.792041E-1,6.2342353E-2,-1.8845965E-1,2.8212738E-1,-3.700758E-1,-1.04797155E-1,1.3168813E-1,-2.3991857E-1,3.0294695E-1,2.3578925E-1,1.2446765E-1,-5.5244386E-2,2.4231194E-2,2.2493419E-1,8.261717E-3,-1.2204844E-1,4.0535886E-2,-3.0372292E-1,3.3920375E-1,9.261551E-2,4.6333496E-2,1.9567026E-1,2.4086878E-1,-4.4397708E-2,-5.291146E-2,9.551189E-2,2.2388045E-1,8.688651E-2,3.264537E-1,2.72912E-2,3.470703E-1,4.0851444E-2,-2.6970404E-1,-7.20963E-2,-3.3997956E-1,-2.1924905E-1,-7.016582E-2,3.0982092E-1,6.065585E-2,-1.5273267E-1,-2.5104672E-1,2.1025967E-2,2.4513033E-1,-1.08856745E-1,2.5361586E-1,-1.9255176E-2,-2.6231167E-1,-3.4301393E-2,-8.263279E-2,2.275907E-1,-5.0127044E-2,-3.240621E-1,-2.7999002E-1,-5.9467357E-2,-1.0319199E-2,-3.0711257E-1,6.051049E-2,2.2423376E-1,-3.5345975E-2,-3.186567E-1,3.0127103E-2,-1.1136322E-1,1.1641183E-1,3.2769796E-1,-2.5568131E-2,2.840238E-1,-3.0630448E-1,-5.0996725E-2,2.0333583E-2,-2.3069647E-1,-3.132001E-1,-9.701916E-2,1.1863574E-1,-9.024243E-2,-2.5167364E-1,-6.0665566E-2,-1.1166401E-1,2.840581E-1,1.1325991E-1,-2.0678668E-1,3.062782E-1,6.970125E-2,-2.8528476E-1,2.5475022E-1,-2.814062E-1,1.5515688E-1,-2.1674669E-1,9.926511E-2,-1.1926701E-1,-3.0714154E-1,-2.7470338E-1,-4.8289128E-2,1.0292576E-1,-1.7898916E-1,-1.3256964E-1,2.954499E-1,1.9042741E-1,-8.006734E-2,-2.194314E-2,-2.9514778E-1,3.0603588E-1,4.3656297E-2,-1.5237083E-1,3.1128073E-1,3.9543477E-1,2.3986346E-1,-7.62406E-2,2.695748E-1,-3.0100265E-1,-1.0611324E-2,-3.7992477E-1,6.9673665E-2,3.285908E-1,1.775912E-1,1.1667125E-1,-2.7709374E-1,2.6988736E-1,-2.7049324E-2,2.4234086E-1,-1.0131583E-1,2.5599188E-1,2.0687053E-2,1.013361E-1,3.2299373E-1,3.4640047E-1,1.7154409E-1,1.1682685E-1,-1.11373045E-1,1.997487E-1,3.2285553E-1,3.429921E-1,2.9080743E-1,2.9465374E-1,1.0115317E-1,3.2544047E-1,-2.1709879E-1,-3.0733824E-1,2.9048064E-1,1.5943682E-1,2.7242314E-2,4.1499656E-1,1.4343876E-1,-4.436556E-2,-3.6614302E-1,3.3245394E-1,5.762128E-2,-9.83315E-2,-2.983821E-1,-2.5965106E-1,-1.0562044E-2,-2.2808861E-2,-3.6506587E-1,-7.737567E-2,3.262161E-1,-3.4005424E-1,1.9637074E-1,1.6104417E-1,-3.122481E-1,1.548764E-2,3.158986E-1,-2.333367E-1,-3.0415675E-2,2.0825721E-1,-1.4070773E-1,-2.4487686E-1,1.6849628E-2,-1.7344661E-1,-3.846912E-1,2.8235638E-1,-2.7790654E-1,5.8317357E-3,1.8509689E-1,-3.171675E-1,6.493974E-2,-2.4435341E-1,-6.493695E-3,-1.0747295E-1,2.86721E-1,-2.8543007E-1,-1.3398226E-1,-3.4890637E-1,3.0818787E-1,-2.6686347E-1,1.8642135E-1,9.321076E-3,-3.1751683E-1,2.51909E-1,1.555995E-1,-4.556744E-2,3.4770563E-1,-8.964168E-3,1.308884E-1,-7.341828E-2,1.23504534E-1,6.9137723E-3,2.9907134E-1,8.231053E-2,1.7328066E-1,-3.0101916E-1,4.030501E-2,2.1660425E-1,3.1415942E-1,-3.1014207E-1,5.7280336E-2,1.2545764E-1,3.5107484E-1,-3.2784593E-1,1.8923503E-1,3.040098E-1,-1.6567057E-2,-1.0449113E-1,2.4576837E-1,3.3157715E-1,2.5661612E-1,2.6498887E-1,3.605129E-1,-3.140382E-1,-5.388865E-2,1.1507917E-2,3.0780333E-1,-5.0385036E-2,-2.7160308E-1,-4.2340614E-2,6.778329E-2,-3.0664483E-1,1.8866965E-1,-3.2661995E-1,-9.9079296E-2,-7.505507E-2,3.711669E-1,3.0121797E-1,-7.2415024E-2,6.2269054E-2,-3.0249166E-1,-1.0589429E-1,1.7548092E-1],"categories":[],"categories_nodes":[],"categories_segments":[],"categories_sizes":[],"default_left":[0,0,0,0,0,0,0,0,0,0,0,0,0,0,0,0,0,0,0,0,0,0,0,0,0,0,0,0,0,0,0,0,0,0,0,0,0,0,0,0,0,0,0,0,0,0,0,0,0,0,0,0,0,0,0,0,0,0,0,0,0,0,0,0,0,0,0,0,0,0,0,0,0,0,0,0,0,0,0,0,0,0,0,0,0,0,0,0,0,0,0,0,0,0,0,0,0,0,0,0,0,0,0,0,0,0,0,0,0,0,0,0,0,0,0,0,0,0,0,0,0,0,0,0,0,0,0,0,0,0,0,0,0,0,0,0,0,0,0,0,0,0,0,0,0,0,0,0,0,0,0,0,0,0,0,0,0,0,0,0,0,0,0,0,0,0,0,0,0,0,0,0,0,0,0,0,0,0,0,0,0,0,0,0,0,0,0,0,0,0,0,0,0,0,0,0,0,0,0,0,0,0,0,0,0,0,0,0,0,0,0,0,0,0,0,0,0,0,0,0,0,0,0,0,0,0,0,0,0,0,0,0,0,0,0,0,0,0,0,0,0,0,0,0,0,0,0,0,0,0,0,0,0,0,0,0,0,0,0,0,0,0,0,0,0,0,0,0,0,0,0,0,0,0,0,0,0,0,0,0,0,0,0,0,0,0,0,0,0,0,0,0,0,0,0,0,0,0,0,0,0,0,0,0,0,0,0,0,0,0,0,0,0,0,0,0,0,0,0,0,0,0,0,0,0,0,0,0,0,0,0,0,0,0,0,0,0,0,0,0,0,0,0,0,0,0,0,0,0,0,0,0,0,0,0,0,0,0,0,0,0,0,0,0,0,0,0,0,0,0,0,0,0,0,0,0,0,0,0,0,0,0,0,0,0,0,0,0,0,0,0,0,0,0,0,0,0,0,0,0,0,0,0,0,0,0,0,0,0,0,0,0,0,0,0,0,0,0,0,0,0,0,0,0,0,0,0,0,0,0,0,0,0,0,0,0,0,0,0,0,0,0,0,0,0,0,0,0,0,0,0,0,0,0,0,0,0,0,0,0,0,0,0,0,0,0,0,0,0,0,0,0,0,0,0,0,0,0,0,0,0,0,0,0,0,0,0,0,0,0,0,0,0,0,0,0,0,0,0,0,0,0,0,0,0,0,0,0,0,0,0,0,0,0,0,0,0,0,0,0,0,0,0,0,0,0,0,0,0,0,0,0,0,0,0,0,0,0,0,0,0,0,0,0,0,0,0,0,0,0,0,0,0,0,0,0,0,0,0,0,0,0,0,0,0,0,0,0,0,0,0,0,0,0,0,0,0,0,0,0,0,0,0,0,0,0,0,0,0,0,0,0,0,0,0,0,0,0,0,0,0,0,0,0,0,0,0,0,0,0,0,0,0,0,0,0,0,0,0,0,0,0,0,0,0,0,0,0,0,0,0,0,0,0,0,0,0,0,0,0,0,0,0,0,0,0,0,0,0,0,0,0,0,0,0,0,0,0,0,0,0,0,0,0,0,0,0,0,0,0,0,0,0,0,0,0,0,0,0,0,0,0,0,0,0,0,0,0,0,0,0,0,0,0,0,0,0,0,0,0,0,0,0,0,0,0,0,0,0,0,0,0,0,0,0,0,0,0,0,0,0,0,0,0,0,0,0,0,0,0,0,0,0,0,0,0,0,0,0,0,0,0,0,0,0,0,0,0,0,0,0,0,0,0,0,0,0,0,0,0,0,0,0,0,0,0,0,0,0,0,0,0,0,0,